
\data\
ngram 1=1103
ngram 2=2466
ngram 3=2767
ngram 4=2711
ngram 5=2605

\1-grams:
-2.391993	"	-0.04966718
-2.488903	'	-0.1008197
-2.136721	's	-0.04966718
-2.914872	't	-0.04966718
-2.488903	(	-0.04966717
-2.488903	)	-0.2257584
-1.354567	,	-0.2333116
-1.362609	.	-1.049667
-3.391993	1	-0.04966717
-3.391993	1.48	-0.04966717
-3.391993	1.6	-0.04966717
-3.391993	1.83	-0.04966717
-3.090963	10	-0.04966718
-3.090963	100	-0.04966717
-3.391993	12,242	-0.04966718
-3.391993	130	-0.04966717
-3.391993	15	-0.04966717
-3.391993	156	-0.04966717
-3.391993	18	-0.04966717
-3.391993	18-year	-0.04966717
-3.090963	19	-0.3506972
-3.391993	1983	-0.04966717
-3.391993	1989	-0.04966718
-3.391993	1996	-0.04966717
-3.391993	1997	-0.04966717
-3.391993	2-0	-0.04966717
-3.391993	200,000	-0.04966717
-3.391993	2000	-0.04966717
-3.391993	21	-0.04966717
-3.391993	21,411	-0.04966717
-3.391993	210	-0.04966717
-3.391993	24-2	-0.04966717
-3.391993	26	-0.04966717
-3.391993	3-0	-0.04966717
-3.391993	3-1	-0.04966717
-3.391993	37	-0.04966717
-3.391993	3rd	-0.04966717
-3.391993	400	-0.04966717
-3.391993	450	-0.04966717
-3.391993	5,000	-0.04966717
-3.391993	50	-0.04966717
-3.391993	51st	-0.04966718
-3.391993	54	-0.04966717
-3.391993	55th	-0.04966718
-3.391993	58,000	-0.04966717
-3.391993	6	-0.04966717
-3.391993	6-year-old	-0.04966717
-3.391993	60	-0.04966717
-3.391993	600	-0.04966717
-3.391993	73-year-old	-0.04966717
-2.693023	</s>
-99	<s>	-0.4847271
-3.391993	?	-0.04966718
-2.914872	_	-0.04966717
-1.719895	a	-0.06815059
-2.914872	aarones	-0.04966717
-3.391993	abdullah	-0.04966717
-2.488903	about	-0.1076591
-3.391993	absolutely	-0.04966717
-3.391993	abuse	-0.04966718
-3.391993	accommodating	-0.04966717
-3.391993	accountant	-0.04966717
-3.391993	accusations	-0.04966718
-3.391993	activists	-0.04966717
-3.391993	adams	-0.04966717
-3.391993	added	-0.04966717
-3.391993	adjourned	-0.04966717
-3.391993	administrative	-0.04966717
-2.914872	adults	-0.04966719
-3.090963	advantage	-0.3506972
-3.391993	affluent	-0.04966717
-2.546895	after	-0.2927052
-3.391993	again	-0.04966717
-2.914872	against	-0.04966718
-3.391993	ago	-0.04966718
-3.391993	agree	-0.04966718
-3.391993	agreed	-0.04966717
-3.391993	ahmad	-0.04966717
-3.391993	air	-0.04966717
-3.090963	all	-0.04966717
-3.391993	allowed	-0.04966718
-3.391993	along	-0.04966718
-3.391993	already	-0.04966717
-2.488903	also	-0.04966717
-3.391993	altar	-0.04966718
-3.391993	although	-0.04966717
-3.391993	amid	-0.04966718
-3.391993	amnesty	-0.04966717
-3.391993	among	-0.04966718
-2.27805	an	-0.1222178
-1.659599	and	-0.116614
-3.391993	ann	-0.04966717
-3.391993	anniversary	-0.04966718
-3.090963	announced	-0.04966718
-3.391993	anti-china	-0.04966718
-3.391993	anti-independence	-0.04966717
-3.391993	anticipated	-0.04966717
-2.693023	anwar	-0.04966717
-3.090963	any	-0.04966717
-3.391993	apparent	-0.04966717
-3.391993	appeal	-0.04966717
-3.391993	appearances	-0.04966717
-3.391993	appeared	-0.04966717
-2.693023	are	-0.1288484
-3.391993	area	-0.04966717
-2.789933	armed	-0.04966717
-3.391993	arms	-0.04966717
-3.391993	around	-0.04966717
-3.090963	arrest	-0.04966718
-3.391993	arrested	-0.04966717
-2.3506	as	-0.08745574
-3.391993	asked	-0.04966717
-3.391993	asking	-0.04966717
-3.391993	asleep	-0.04966717
-2.312812	at	-0.209368
-3.090963	attack	-0.04966717
-3.391993	attacked	-0.04966717
-3.391993	attending	-0.04966718
-3.391993	audible	-0.04966717
-3.391993	audience	-0.04966718
-3.391993	australia	-0.04966718
-2.914872	australian	-0.2257584
-3.391993	authority	-0.04966718
-3.090963	autonomy	-0.3506972
-3.391993	avoided	-0.04966718
-3.391993	awarded	-0.04966718
-3.391993	away	-0.04966717
-3.391993	azizah	-0.04966717
-3.391993	b.	-0.04966717
-3.391993	back	-0.04966717
-3.391993	badawi	-0.04966718
-2.789933	balachandran	-0.1465772
-3.391993	ball	-0.04966718
-3.391993	banded	-0.04966717
-3.391993	banner	-0.04966717
-3.391993	bare-chested	-0.04966717
-3.391993	basic	-0.04966717
-2.546895	be	-0.04966717
-2.789933	because	-0.3506972
-2.914872	been	-0.04966718
-3.391993	befitting	-0.04966718
-2.789933	before	-0.04966718
-2.914872	began	-0.04966718
-3.391993	behind	-0.04966717
-2.693023	beijing	-0.1465772
-2.914872	being	-0.04966717
-3.391993	belongs	-0.04966717
-3.391993	between	-0.04966717
-3.391993	beyond	-0.04966717
-3.391993	bill	-0.04966717
-3.391993	black	-0.04966717
-3.090963	blair	-0.04966717
-3.391993	blame	-0.04966718
-3.090963	blaze	-0.04966717
-3.391993	block	-0.04966717
-3.391993	blocked	-0.04966717
-3.391993	blocks	-0.04966718
-3.391993	blurred	-0.04966717
-3.391993	boat	-0.04966717
-3.391993	bodies	-0.04966717
-3.391993	born	-0.04966717
-2.914872	both	-0.04966718
-3.391993	breakup	-0.04966717
-3.391993	britain	-0.04966717
-2.914872	british	-0.04966717
-3.391993	british-style	-0.04966717
-3.391993	broke	-0.04966718
-3.391993	brought	-0.04966717
-3.391993	build	-0.04966718
-2.914872	building	-0.04966718
-3.391993	built	-0.04966718
-3.391993	burned	-0.04966717
-2.914872	business	-0.2257584
-2.789933	but	-0.04966717
-3.391993	butchers	-0.04966718
-2.391993	by	-0.04966718
-2.914872	call	-0.04966718
-3.090963	called	-0.04966717
-2.914872	camp	-0.04966718
-2.914872	can	-0.04966717
-3.391993	canberra	-0.04966718
-3.391993	capacity	-0.04966717
-3.391993	capital	-0.04966717
-3.391993	captain	-0.04966717
-3.391993	card	-0.04966717
-3.391993	carelessness	-0.04966717
-3.391993	carried	-0.04966718
-3.391993	carrier	-0.04966717
-3.391993	cases	-0.04966718
-3.391993	catch	-0.04966718
-3.391993	caused	-0.04966718
-3.391993	causes	-0.04966717
-3.391993	celebrate	-0.04966717
-3.391993	celebrating	-0.04966717
-3.391993	celebration	-0.04966717
-3.391993	celebrations	-0.04966717
-2.789933	center	-0.04966718
-3.391993	centimeter	-0.04966718
-3.391993	centimeters	-0.04966718
-2.914872	ceremony	-0.5267885
-3.090963	challenge	-0.04966718
-3.391993	challenged	-0.04966717
-3.391993	champion	-0.04966718
-3.391993	chance	-0.04966717
-3.391993	changed	-0.04966717
-3.391993	changing	-0.04966717
-3.391993	chanted	-0.04966717
-3.391993	chanting	-0.04966717
-3.391993	chants	-0.04966718
-3.391993	characterize	-0.04966718
-3.391993	charge	-0.04966717
-3.090963	charges	-0.04966717
-3.391993	charred	-0.04966717
-3.391993	checked	-0.04966717
-3.391993	chee-hwa	-0.04966717
-3.391993	chief	-0.04966717
-3.090963	child	-0.04966717
-2.437751	children	-0.3049397
-2.613842	china	-0.116614
-2.789933	chinese	-0.04966717
-3.391993	chipping	-0.04966717
-3.391993	chrysanthemums	-0.04966717
-3.391993	citizens	-0.04966717
-3.391993	civil	-0.04966718
-3.391993	climbing	-0.04966717
-2.789933	clinton	-0.04966718
-3.391993	close	-0.04966717
-3.391993	club	-0.04966717
-3.391993	coast	-0.04966717
-3.391993	codes	-0.04966717
-3.391993	collapsed	-0.04966718
-3.391993	collision	-0.04966718
-3.090963	colombo	-0.04966718
-3.391993	come	-0.04966718
-3.391993	comments	-0.04966717
-3.391993	commonly	-0.04966717
-2.914872	communications	-0.04966718
-3.391993	communist	-0.04966717
-3.090963	companies	-0.04966717
-2.693023	company	-0.04966717
-3.391993	complaints	-0.04966718
-3.391993	concrete	-0.04966717
-3.391993	conduct	-0.04966718
-3.391993	confiscated	-0.04966717
-3.391993	congress	-0.04966717
-3.391993	conspiracy	-0.04966718
-3.391993	constitution	-0.04966718
-3.090963	construction	-0.04966717
-3.391993	consulting	-0.04966718
-3.391993	contain	-0.04966718
-3.090963	containers	-0.04966716
-3.391993	control	-0.04966717
-3.391993	controlled	-0.04966717
-3.391993	conversation	-0.04966717
-3.391993	conversations	-0.04966717
-3.391993	converted	-0.04966718
-3.391993	convinced	-0.04966718
-3.391993	corner	-0.04966718
-2.693023	corp.	-0.04966718
-3.391993	corporate	-0.04966717
-3.391993	corridor	-0.04966717
-2.693023	could	-0.04966717
-3.391993	couldn	-0.04966718
-3.090963	country	-0.2257584
-3.391993	course	-0.04966718
-3.391993	court	-0.04966718
-3.391993	covering	-0.04966717
-3.391993	crime	-0.04966717
-3.391993	criminal	-0.04966717
-3.391993	critics	-0.04966717
-3.391993	crowd	-0.04966718
-3.391993	crowds	-0.04966717
-3.391993	crucial	-0.04966717
-3.391993	cruel	-0.04966717
-3.391993	crushed	-0.04966717
-3.391993	cup	-0.04966717
-3.391993	cups	-0.04966717
-3.391993	custody	-0.04966717
-3.391993	cut	-0.04966718
-3.391993	dae-jung	-0.04966717
-3.391993	data	-0.04966717
-3.391993	daughters	-0.04966717
-3.391993	david	-0.04966717
-3.391993	day	-0.04966718
-3.391993	days	-0.04966717
-2.914872	dead	-0.1746059
-3.391993	dealt	-0.04966718
-3.391993	death	-0.04966717
-3.391993	decade	-0.04966717
-3.391993	december	-0.04966717
-3.391993	decision	-0.04966718
-3.391993	declined	-0.04966717
-3.391993	defeated	-0.04966717
-3.090963	defenders	-0.04966717
-3.391993	defending	-0.04966717
-3.391993	deferred	-0.04966717
-3.391993	demanded	-0.04966717
-3.391993	demanding	-0.04966718
-3.391993	democratic	-0.04966717
-3.090963	demonstrations	-0.04966718
-3.391993	demonstrators	-0.04966717
-3.090963	denies	-0.3506972
-2.914872	deputy	-0.04966717
-3.391993	didn	-0.04966718
-2.789933	died	-0.1746059
-3.391993	different	-0.04966717
-3.391993	dignitaries	-0.04966718
-3.391993	dilemma	-0.04966717
-3.391993	dinner	-0.04966717
-3.391993	discrimination	-0.04966717
-3.391993	dissent	-0.04966717
-3.391993	dlrs	-0.04966717
-3.391993	dna	-0.04966718
-3.391993	docomo	-0.04966717
-3.391993	domestic	-0.04966718
-2.693023	dormitory	-0.04966716
-3.391993	doubts	-0.04966718
-3.090963	down	-0.04966718
-3.391993	dozen	-0.04966717
-3.391993	drawn-out	-0.04966717
-3.391993	dubbed	-0.04966717
-2.914872	each	-0.04966717
-2.914872	earlier	-0.04966717
-2.914872	early	-0.04966718
-3.391993	earned	-0.04966718
-2.914872	east	-0.2257584
-3.391993	eastern	-0.04966718
-3.391993	economy	-0.04966718
-3.391993	eelam	-0.04966717
-3.090963	election	-0.04966718
-3.391993	elections	-0.04966717
-3.391993	electrical	-0.04966717
-3.391993	elementary	-0.04966717
-2.914872	end	-0.2257584
-3.391993	engineers	-0.04966717
-3.391993	ensure	-0.04966717
-3.391993	entered	-0.04966718
-3.391993	enters	-0.04966717
-3.391993	erred	-0.04966717
-3.391993	especially	-0.04966717
-3.391993	even	-0.04966717
-3.391993	every	-0.04966717
-3.391993	example	-0.04966717
-3.391993	except	-0.04966717
-3.391993	exchange	-0.04966717
-3.090963	executive	-0.04966718
-3.391993	expected	-0.04966717
-3.391993	explanations	-0.04966717
-2.914872	face	-0.04966717
-3.391993	facilities	-0.04966717
-3.090963	facility	-0.04966717
-3.391993	facing	-0.04966717
-3.391993	fainted	-0.04966718
-3.391993	faked	-0.04966718
-3.391993	fallen	-0.04966717
-3.391993	familiar	-0.04966717
-3.391993	fan	-0.04966717
-3.391993	fast	-0.04966717
-3.391993	faster	-0.04966718
-3.391993	fearing	-0.04966718
-3.391993	feet	-0.04966718
-3.391993	fein-ira	-0.04966717
-3.090963	few	-0.04966717
-3.391993	field	-0.04966717
-3.391993	fight	-0.04966718
-3.090963	fighting	-0.04966716
-3.090963	final	-0.04966718
-3.391993	finalist	-0.04966717
-3.090963	financial	-0.04966718
-2.914872	fire	-0.04966718
-3.391993	fire-extinguishing	-0.04966718
-3.391993	fired	-0.04966717
-3.391993	firefighters	-0.04966717
-3.391993	fireman	-0.04966717
-2.914872	first	-0.04966718
-3.391993	flag-raising	-0.04966718
-3.090963	flags	-0.04966717
-3.391993	flammable	-0.04966717
-3.391993	fled	-0.04966717
-3.090963	flew	-0.04966718
-3.391993	floated	-0.04966717
-3.391993	floor	-0.04966718
-3.090963	floors	-0.04966717
-3.391993	flower	-0.04966717
-3.391993	fluttered	-0.04966717
-3.391993	follows	-0.04966718
-2.04957	for	-0.06987057
-3.391993	force	-0.04966717
-3.391993	forces	-0.04966717
-3.391993	forehead	-0.04966717
-3.090963	forensic	-0.04966718
-3.391993	formation	-0.04966718
-3.391993	formed	-0.04966717
-2.789933	former	-0.04966717
-3.391993	formula	-0.04966717
-3.391993	four	-0.04966718
-3.391993	foxboro	-0.04966717
-3.391993	framed	-0.04966718
-3.090963	free	-0.04966717
-3.391993	free-market	-0.04966717
-3.391993	freight	-0.04966717
-3.391993	frequent	-0.04966717
-3.391993	friday	-0.04966717
-2.437751	from	-0.1008197
-3.391993	fund-raising	-0.04966717
-3.391993	funeral	-0.04966717
-3.391993	gained	-0.04966717
-3.090963	gave	-0.04966718
-3.391993	general	-0.04966717
-3.391993	gerry	-0.04966717
-2.914872	get	-0.04966718
-3.391993	getting	-0.04966717
-3.391993	giant	-0.04966718
-3.391993	give	-0.04966717
-3.090963	goal	-0.04966717
-3.391993	goalie	-0.04966717
-3.391993	going	-0.04966717
-3.391993	golf	-0.04966717
-3.391993	got	-0.04966717
-2.693023	government	-0.04966717
-3.391993	gp-dj	-0.04966718
-3.391993	graf	-0.04966717
-3.391993	grandmothers	-0.04966717
-3.391993	granted	-0.04966718
-3.391993	grip	-0.04966718
-2.914872	groups	-0.04966718
-3.391993	guarantees	-0.04966718
-3.090963	guard	-0.04966717
-2.914872	guards	-0.04966717
-3.391993	gulbrandsen	-0.04966718
-3.391993	gunfire	-0.04966717
-3.090963	gunmen	-0.04966718
-3.391993	gutted	-0.04966717
-2.546895	had	-0.1166139
-2.914872	half	-0.04966718
-3.391993	hampered	-0.04966717
-3.391993	handover	-0.04966717
-3.391993	hands-off	-0.04966717
-3.391993	happen	-0.04966717
-3.391993	harbor	-0.04966717
-3.391993	harragon	-0.04966717
-2.312812	has	-0.1222178
-3.391993	hat	-0.04966717
-2.391993	have	-0.09542466
-3.391993	hazardous	-0.04966717
-2.391993	he	-0.2605205
-3.391993	head	-0.04966717
-3.391993	hear	-0.04966717
-3.090963	heard	-0.04966718
-3.391993	heated	-0.04966717
-3.391993	hege	-0.04966717
-3.090963	height	-0.04966717
-3.391993	held	-0.04966717
-3.391993	helicopters	-0.04966718
-3.391993	help	-0.04966717
-2.693023	her	-0.04966717
-3.391993	here	-0.04966717
-3.090963	high	-0.04966718
-3.391993	highest	-0.04966717
-3.391993	highly	-0.04966717
-3.391993	him	-0.04966717
-2.391993	his	-0.04966718
-3.090963	holding	-0.3506972
-3.391993	holiday	-0.04966717
-2.789933	home	-0.04966718
-3.391993	homeland	-0.04966717
-2.187873	hong	-1.253787
-3.391993	hooker	-0.04966717
-3.391993	hoopla	-0.04966718
-3.391993	horrible	-0.04966717
-3.391993	host	-0.04966718
-3.391993	hours	-0.04966717
-3.391993	house	-0.04966717
-2.914872	how	-0.04966717
-3.391993	howard	-0.04966717
-2.789933	hu	-0.04966718
-3.090963	huge	-0.3506972
-3.391993	hugged	-0.04966718
-3.391993	husband	-0.04966718
-3.391993	hwasung	-0.04966717
-3.090963	i	-0.04966717
-3.391993	ibrahim	-0.04966718
-3.391993	identification	-0.04966717
-3.391993	if	-0.04966718
-3.090963	immigrants	-0.04966717
-3.391993	important	-0.04966718
-3.391993	imposing	-0.04966717
-1.67599	in	-0.3506972
-3.391993	inc	-0.04966717
-3.391993	inch	-0.04966718
-3.391993	inches	-0.04966718
-3.391993	included	-0.04966718
-2.914872	including	-0.04966718
-3.391993	independence	-0.04966718
-3.391993	independent	-0.04966717
-3.391993	indonesian	-0.04966717
-3.391993	industry	-0.04966717
-3.391993	influx	-0.04966717
-3.391993	injured	-0.04966717
-3.090963	injury	-0.04966717
-3.391993	inside	-0.04966718
-3.391993	insisted	-0.04966718
-3.391993	intended	-0.04966717
-3.391993	international	-0.04966717
-3.391993	internet	-0.04966718
-2.546895	into	-0.1957952
-2.789933	investigation	-0.04966717
-3.391993	investors	-0.04966717
-3.391993	involved	-0.04966717
-3.391993	ireland	-0.04966717
-3.391993	irish	-0.04966718
-2.391993	is	-0.04966718
-3.391993	ismail	-0.04966717
-3.391993	issues	-0.04966717
-3.391993	issuing	-0.04966717
-2.693023	it	-0.04966717
-2.437751	its	-0.04966717
-3.391993	itself	-0.04966718
-3.391993	jailed	-0.04966717
-3.391993	january	-0.04966718
-2.914872	japan	-0.2257584
-3.391993	japanese	-0.04966718
-3.391993	ji-su	-0.04966717
-3.391993	jintao	-0.04966717
-3.391993	joe	-0.04966718
-3.391993	john	-0.04966717
-3.391993	jorgensen	-0.04966717
-3.391993	judgment	-0.04966718
-3.391993	judiciary	-0.04966718
-3.391993	july	-0.04966717
-3.391993	jumped	-0.04966717
-3.391993	june	-0.04966717
-3.391993	just	-0.04966717
-3.391993	justice	-0.04966717
-3.391993	justices	-0.04966718
-3.391993	kam-wah	-0.04966717
-2.789933	karlsson	-0.1746059
-3.391993	kazuhiko	-0.04966717
-3.391993	keep	-0.04966717
-3.090963	kept	-0.04966718
-3.090963	kick	-0.04966717
-3.090963	kids	-0.04966718
-3.090963	killed	-0.04966718
-3.090963	kilometers	-0.3506972
-3.090963	kim	-0.04966718
-3.090963	kindergarten	-0.04966716
-3.391993	knee	-0.04966717
-3.090963	knights	-0.04966718
-3.391993	know	-0.04966718
-3.391993	known	-0.04966717
-3.391993	koh	-0.04966717
-3.391993	kong	-0.04966718
-3.391993	korea	-0.04966717
-3.391993	kristin	-0.04966718
-3.391993	landed	-0.04966717
-3.391993	lanka	-0.04966718
-3.391993	lankan	-0.04966717
-3.391993	largely	-0.04966717
-3.391993	largest	-0.04966718
-2.789933	last	-0.1746059
-3.391993	lasted	-0.04966718
-3.391993	late	-0.04966717
-2.789933	later	-0.04966718
-3.391993	lau	-0.04966717
-3.391993	launched	-0.04966718
-3.391993	law	-0.04966717
-3.090963	lawmaker	-0.04966717
-3.391993	lawmakers	-0.04966717
-2.789933	leader	-0.04966717
-3.090963	leaders	-0.04966718
-3.391993	league	-0.04966717
-3.391993	leaped	-0.04966717
-3.391993	lee	-0.04966717
-3.391993	left	-0.04966717
-3.391993	legal	-0.04966717
-3.391993	length	-0.04966718
-3.391993	level	-0.04966717
-3.391993	liberation	-0.04966717
-3.391993	license	-0.04966717
-3.391993	licensed	-0.04966718
-3.391993	limits	-0.04966717
-3.391993	lives	-0.04966718
-3.391993	living	-0.04966717
-2.914872	local	-0.04966717
-2.914872	lockhart	-0.2257584
-3.391993	lofted	-0.04966718
-3.090963	long	-0.04966718
-3.090963	long-distance	-0.3506972
-3.391993	look	-0.04966717
-3.391993	lost	-0.04966717
-3.391993	loudly	-0.04966717
-3.391993	lower	-0.04966717
-3.391993	m.	-0.04966717
-3.391993	macon	-0.04966717
-3.090963	made	-0.04966718
-2.488903	mahathir	-0.1008197
-3.090963	mainland	-0.04966718
-3.391993	major	-0.04966718
-3.391993	majority	-0.04966717
-3.391993	make	-0.04966717
-3.391993	makeshift	-0.04966717
-3.391993	making	-0.04966718
-3.391993	malays	-0.04966718
-3.391993	malaysia	-0.04966717
-3.391993	malaysian	-0.04966718
-3.391993	male	-0.04966717
-3.391993	maliana	-0.04966717
-3.391993	malin	-0.04966717
-3.391993	manage	-0.04966718
-3.391993	manages	-0.04966718
-3.391993	manner	-0.04966717
-2.914872	many	-0.04966718
-3.391993	marianne	-0.04966717
-3.391993	marked	-0.04966718
-3.391993	market	-0.04966717
-3.391993	marks	-0.04966718
-3.391993	martin	-0.04966717
-3.391993	massachusetts	-0.04966717
-2.914872	match	-0.04966718
-3.391993	materials	-0.04966717
-3.391993	may	-0.04966717
-3.391993	measures	-0.04966717
-3.391993	meet-the-people	-0.04966717
-3.391993	meetings	-0.04966718
-3.391993	megaphones	-0.04966717
-3.391993	members	-0.04966717
-3.391993	met	-0.04966717
-3.090963	meters	-0.04966718
-3.391993	midfielder	-0.04966717
-3.391993	migrant	-0.04966717
-3.090963	miles	-0.3506972
-3.391993	militia	-0.04966717
-3.090963	million	-0.04966717
-3.391993	mini-constitution	-0.04966717
-3.391993	minister	-0.04966718
-3.391993	ministry	-0.04966718
-3.391993	minority	-0.04966717
-2.914872	minute	-0.04966717
-2.914872	minutes	-0.2257584
-3.391993	mobile	-0.04966718
-3.090963	moderate	-0.04966718
-3.391993	mohamad	-0.04966717
-3.391993	money	-0.04966718
-3.391993	monopoly	-0.04966718
-3.391993	month	-0.04966717
-2.914872	monument	-0.2257584
-2.789933	more	-0.3506972
-3.391993	morning	-0.04966717
-2.914872	most	-0.04966717
-3.391993	mostly	-0.04966717
-3.391993	mostrom	-0.04966717
-3.090963	mothers	-0.04966717
-3.391993	mourning	-0.04966717
-3.391993	move	-0.04966717
-3.391993	muslim	-0.04966717
-3.090963	must	-0.04966718
-3.391993	narrow	-0.04966717
-2.914872	national	-0.04966718
-3.391993	nations	-0.04966717
-3.391993	nationwide	-0.04966717
-3.391993	near	-0.04966718
-3.391993	nearby	-0.04966717
-3.090963	need	-0.04966717
-3.391993	neighbors	-0.04966718
-3.391993	net	-0.04966717
-3.391993	network	-0.04966717
-3.391993	never	-0.04966717
-3.090963	new	-0.04966717
-3.391993	newcastle	-0.04966717
-3.391993	next	-0.04966717
-3.090963	night	-0.04966718
-2.914872	nippon	-0.5267885
-3.090963	nishizawa	-0.3506972
-3.391993	no	-0.04966717
-3.391993	noise	-0.04966717
-3.391993	north	-0.04966718
-3.391993	northern	-0.04966718
-2.914872	norway	-0.04966717
-2.914872	norwegian	-0.04966718
-3.391993	norwegians	-0.04966716
-2.789933	not	-0.04966718
-3.391993	notified	-0.04966717
-2.789933	now	-0.04966718
-2.546895	ntt	-0.04966717
-3.391993	number	-0.04966718
-3.391993	observers	-0.04966717
-3.391993	occurred	-0.04966717
-1.65163	of	-0.1972699
-3.391993	off	-0.04966717
-3.391993	offering	-0.04966718
-3.391993	officially	-0.04966717
-2.693023	officials	-0.1465772
-2.136721	on	-0.2257585
-3.391993	on-going	-0.04966717
-2.914872	once	-0.04966718
-3.391993	once-fragmented	-0.04966717
-2.3506	one	-0.08745574
-3.391993	one-party	-0.04966717
-3.391993	only	-0.04966717
-3.391993	operations	-0.04966718
-3.391993	opponents	-0.04966717
-3.090963	opposition	-0.04966718
-3.391993	or	-0.04966717
-3.391993	ordinary	-0.04966717
-3.090963	organization	-0.04966718
-3.391993	other	-0.04966717
-3.090963	our	-0.04966718
-2.546895	out	-0.116614
-3.391993	outshooting	-0.04966718
-3.090963	outside	-0.04966717
-2.693023	over	-0.1465772
-3.391993	overhaul	-0.04966717
-3.391993	overlooking	-0.04966718
-3.391993	oversees	-0.04966718
-3.391993	own	-0.04966717
-3.391993	owner	-0.04966718
-3.391993	pact	-0.04966717
-3.391993	parade	-0.04966718
-3.090963	parent	-0.04966718
-3.090963	parents	-0.04966717
-2.914872	part	-0.2257584
-2.789933	party	-0.04966717
-3.391993	pass	-0.04966718
-2.789933	past	-0.04966717
-3.391993	paul	-0.04966717
-3.090963	peace	-0.04966717
-2.914872	penalty	-0.04966717
-3.090963	penang	-0.1746059
-2.693023	people	-0.04966718
-3.391993	permitted	-0.04966718
-3.391993	personnel	-0.04966717
-3.391993	persuaded	-0.04966718
-3.090963	pettersen	-0.04966718
-3.391993	pharmaceutical	-0.04966717
-2.914872	phone	-0.04966717
-3.391993	photos	-0.04966718
-3.391993	place	-0.04966717
-3.391993	placing	-0.04966718
-3.391993	planned	-0.04966717
-3.090963	played	-0.04966717
-3.391993	player	-0.04966718
-3.391993	pleaded	-0.04966718
-3.391993	pledge	-0.04966717
-3.391993	plote	-0.04966717
-3.391993	point	-0.04966717
-2.693023	police	-0.1957952
-2.914872	political	-0.1746059
-3.391993	popular	-0.04966717
-3.391993	posts	-0.04966718
-3.391993	potential	-0.04966717
-3.090963	power	-0.3506972
-3.391993	predict	-0.04966718
-3.391993	present	-0.04966717
-2.693023	president	-0.04966717
-2.693023	prime	-0.4476072
-3.391993	prison	-0.04966717
-3.391993	prisoners	-0.04966718
-3.391993	pro-democracy	-0.04966717
-3.391993	proclaimed	-0.04966718
-3.391993	program	-0.04966717
-3.391993	promises	-0.04966717
-3.391993	propel	-0.04966717
-3.391993	proper	-0.04966717
-3.391993	prosperous	-0.04966718
-3.090963	protege	-0.04966717
-2.914872	protesters	-0.04966718
-3.391993	prove	-0.04966718
-3.391993	provider	-0.04966718
-3.391993	province	-0.04966718
-3.391993	prowess	-0.04966718
-3.391993	public	-0.04966717
-3.391993	punishment	-0.04966717
-3.391993	pvs	-0.04966717
-3.090963	quarterfinal	-0.3506972
-3.391993	queensland	-0.04966717
-3.391993	questioning	-0.04966717
-3.391993	quickly	-0.04966717
-3.391993	raided	-0.04966718
-3.090963	rallies	-0.04966718
-3.391993	rallying	-0.04966717
-3.391993	ran	-0.04966717
-3.391993	rapid	-0.04966717
-3.391993	rapidly	-0.04966717
-3.391993	reached	-0.04966717
-3.391993	rebel	-0.04966718
-3.391993	rebels	-0.04966717
-3.090963	recent	-0.04966718
-3.391993	recession	-0.04966718
-3.391993	recognition	-0.04966717
-3.391993	recreational	-0.04966717
-3.391993	reform	-0.04966718
-3.391993	regime	-0.04966717
-3.391993	region	-0.04966717
-3.391993	regional	-0.04966717
-3.391993	regulated	-0.04966718
-3.391993	relatives	-0.04966717
-3.391993	release	-0.04966718
-3.391993	relevant	-0.04966717
-3.090963	reorganization	-0.04966718
-3.391993	repeatedly	-0.04966717
-3.391993	require	-0.04966717
-3.090963	residency	-0.04966718
-3.391993	residents	-0.04966718
-3.391993	resolve	-0.04966717
-3.391993	resources	-0.04966717
-3.391993	responding	-0.04966717
-3.391993	rest	-0.04966718
-3.391993	retired	-0.04966717
-3.391993	retiree	-0.04966717
-3.391993	retirement	-0.04966717
-3.391993	return	-0.04966717
-3.391993	returning	-0.04966717
-3.391993	reunification	-0.04966718
-3.391993	reunited	-0.04966718
-3.391993	revised	-0.04966717
-3.391993	right	-0.04966717
-3.391993	riise	-0.04966717
-3.391993	rivals	-0.04966717
-3.391993	roll	-0.04966718
-3.391993	room	-0.04966717
-3.391993	rooms	-0.04966717
-3.391993	rose	-0.04966717
-3.391993	rugby	-0.04966717
-3.391993	ruins	-0.04966717
-3.391993	rule	-0.04966717
-3.090963	ruled	-0.04966718
-3.090963	ruling	-0.04966718
-3.090963	runs	-0.04966717
-3.391993	rushed	-0.04966718
-3.391993	russia	-0.04966717
-3.391993	russians	-0.04966717
-3.391993	sacking	-0.04966718
-3.391993	safer	-0.04966717
-2.914872	safety	-0.2257584
-2.312812	said	-0.207275
-3.391993	saturday	-0.04966718
-3.391993	save	-0.04966718
-3.391993	saw	-0.04966717
-3.090963	say	-0.04966717
-3.391993	saying	-0.04966718
-3.391993	school	-0.04966717
-3.391993	scientific	-0.04966717
-3.391993	scored	-0.04966717
-3.391993	scoreless	-0.04966718
-3.391993	scrambled	-0.04966717
-3.391993	scuffled	-0.04966718
-3.391993	sea	-0.04966718
-3.391993	sealand	-0.04966717
-2.914872	second	-0.2257584
-3.391993	security	-0.04966718
-3.391993	semifinal	-0.04966718
-3.391993	sending	-0.04966718
-3.391993	sent	-0.04966718
-3.391993	sentence	-0.04966717
-3.090963	seoul	-0.1746059
-3.391993	separately	-0.04966717
-3.391993	september	-0.04966717
-2.914872	service	-0.04966717
-3.391993	services	-0.04966717
-3.391993	serving	-0.04966718
-3.391993	set	-0.04966717
-3.090963	several	-0.04966717
-3.391993	share	-0.04966717
-3.391993	shares	-0.04966718
-2.914872	she	-0.04966717
-3.391993	shipping	-0.04966717
-3.391993	short	-0.04966718
-3.391993	short-circuit	-0.04966717
-3.090963	shot	-0.04966717
-3.391993	should	-0.04966717
-3.391993	show	-0.04966718
-3.391993	showed	-0.04966717
-3.391993	shutout	-0.04966717
-3.391993	side	-0.04966718
-3.391993	silje	-0.04966717
-3.391993	similar	-0.04966717
-2.693023	since	-0.1465772
-3.391993	sinhalese	-0.04966717
-3.391993	sinn	-0.04966717
-3.391993	six-year	-0.04966717
-3.391993	skies	-0.04966717
-3.391993	skipping	-0.04966717
-3.391993	small	-0.04966718
-3.391993	soccer	-0.04966717
-3.391993	social	-0.04966718
-3.391993	sodomy	-0.04966717
-3.391993	soft	-0.04966717
-3.391993	solveig	-0.04966717
-3.391993	some	-0.04966717
-2.914872	south	-0.5267885
-3.391993	southwest	-0.04966718
-3.391993	speaking	-0.04966717
-3.391993	special	-0.04966717
-3.391993	specify	-0.04966717
-3.391993	split	-0.04966717
-3.090963	spoke	-0.04966718
-3.090963	spokesman	-0.04966718
-3.391993	spread	-0.04966718
-3.391993	square	-0.04966717
-3.391993	squarely	-0.04966717
-3.090963	sri	-0.04966718
-3.391993	stacked	-0.04966717
-3.391993	staff	-0.04966718
-3.391993	stair-cases	-0.04966718
-3.391993	stairs	-0.04966717
-3.391993	standards	-0.04966718
-3.391993	stands	-0.04966717
-3.391993	star	-0.04966717
-2.914872	state	-0.2257584
-3.391993	state-level	-0.04966717
-3.391993	states	-0.04966717
-3.391993	stay	-0.04966718
-3.391993	stayed	-0.04966717
-3.391993	stem	-0.04966717
-3.391993	step	-0.04966717
-3.391993	steve	-0.04966717
-3.391993	stock	-0.04966717
-3.391993	stop	-0.04966718
-3.391993	stopped	-0.04966718
-3.391993	strategists	-0.04966717
-3.391993	strength	-0.04966717
-3.391993	strengthen	-0.04966718
-3.391993	stretch	-0.04966718
-3.391993	stretching	-0.04966717
-3.090963	stricter	-0.04966718
-3.391993	struck	-0.04966717
-3.391993	structural	-0.04966717
-3.391993	structure	-0.04966717
-3.391993	structures	-0.04966718
-3.391993	struggle	-0.04966718
-3.391993	stunned	-0.04966717
-3.391993	styrofoam	-0.04966717
-3.391993	sub-standard	-0.04966717
-3.391993	substantive	-0.04966717
-3.391993	substitute	-0.04966717
-3.391993	successive	-0.04966717
-3.090963	such	-0.04966717
-3.391993	suk	-0.04966717
-3.391993	summer	-0.04966718
-3.391993	sunday	-0.04966717
-3.391993	surrendering	-0.04966717
-3.391993	survived	-0.04966718
-3.391993	survivors	-0.04966717
-3.391993	sweden	-0.04966717
-3.090963	swedes	-0.04966718
-3.090963	swedish	-0.1746059
-3.391993	swept	-0.04966718
-3.090963	system	-0.04966717
-2.914872	systems	-0.1465772
-3.391993	t	-0.04966718
-3.391993	take	-0.04966718
-3.090963	taken	-0.04966718
-3.391993	talk	-0.04966718
-3.391993	talked	-0.04966717
-3.391993	talks	-0.04966716
-3.391993	tallest	-0.04966717
-2.789933	tamil	-0.04966717
-3.391993	tamil-majority	-0.04966717
-3.391993	tamils	-0.04966717
-3.391993	targeted	-0.04966717
-3.391993	teacher	-0.04966717
-2.789933	teachers	-0.1465772
-2.914872	telecommunications	-0.04966717
-3.391993	telegraph	-0.04966718
-3.090963	telephone	-0.04966718
-3.391993	term	-0.04966718
-3.090963	territory	-0.04966718
-3.391993	test	-0.04966717
-3.090963	tests	-0.04966716
-2.914872	than	-0.04966718
-2.11324	that	-0.09797186
-1.599601	the	-0.1244961
-2.613842	their	-0.04966717
-3.090963	them	-0.04966717
-2.789933	there	-0.04966717
-3.391993	these	-0.04966717
-2.488903	they	-0.09542467
-2.914872	things	-0.2257584
-3.391993	third	-0.04966718
-3.090963	third-floor	-0.04966718
-2.693023	this	-0.1465772
-3.391993	thorough	-0.04966717
-3.391993	those	-0.04966717
-3.391993	three	-0.04966718
-3.391993	three-story	-0.04966717
-3.090963	through	-0.3506972
-2.488903	thursday	-0.2257584
-3.391993	tiananmen	-0.04966717
-3.391993	tiger	-0.04966717
-3.391993	tigers	-0.04966717
-3.391993	tight	-0.04966717
-3.391993	time	-0.04966717
-3.391993	timor	-0.04966717
-3.391993	tiny	-0.04966717
-3.391993	tjh	-0.04966718
-1.73878	to	-0.1089812
-3.090963	together	-0.04966718
-3.391993	tokyo	-0.04966717
-3.391993	told	-0.04966718
-3.391993	toll	-0.04966717
-3.391993	tony	-0.04966717
-3.090963	too	-0.04966718
-3.391993	took	-0.04966718
-3.391993	top	-0.04966717
-3.391993	touched	-0.04966717
-3.391993	tough	-0.04966717
-3.391993	tour	-0.04966717
-3.391993	towered	-0.04966717
-3.391993	towing	-0.04966718
-3.391993	town	-0.04966717
-3.391993	traditional	-0.04966717
-3.391993	tragedy	-0.04966717
-3.391993	training	-0.04966717
-3.391993	trapped	-0.04966717
-3.391993	treated	-0.04966717
-3.391993	trial	-0.04966717
-3.391993	trimble	-0.04966718
-3.090963	tripped	-0.04966716
-3.391993	tuesday	-0.04966717
-3.391993	tumbled	-0.04966717
-3.391993	tung	-0.04966717
-3.391993	turn	-0.04966717
-3.090963	turned	-0.04966718
-3.391993	twice	-0.04966718
-3.391993	twin	-0.04966717
-2.245865	two	-0.1118151
-3.391993	two-day	-0.04966717
-3.391993	u.s.	-0.04966717
-3.391993	ulrika	-0.04966717
-3.391993	ulster	-0.04966717
-3.090963	under	-0.04966717
-3.391993	understand	-0.04966718
-3.391993	unidentified	-0.04966717
-3.391993	unification	-0.04966718
-3.391993	unionist	-0.04966717
-2.914872	united	-0.04966718
-3.090963	until	-0.04966718
-3.391993	unveiled	-0.04966718
-2.789933	up	-0.1746059
-3.391993	update	-0.04966718
-3.391993	upper	-0.04966717
-2.789933	used	-0.04966717
-3.391993	vavuniya	-0.04966717
-3.391993	very	-0.04966717
-3.391993	vice	-0.04966717
-3.391993	victims	-0.04966717
-3.391993	victoria	-0.04966717
-3.391993	victory	-0.04966717
-3.391993	viking	-0.04966717
-3.391993	violation	-0.04966718
-3.391993	virtual	-0.04966717
-3.090963	vote	-0.04966718
-3.391993	wailing	-0.04966717
-3.391993	wake	-0.04966718
-3.391993	walking	-0.04966718
-3.090963	walters	-0.04966717
-3.391993	want	-0.04966717
-3.391993	wanted	-0.04966718
-3.391993	warrants	-0.04966717
-2.187873	was	-0.07314826
-3.391993	washington	-0.04966717
-3.391993	wasting	-0.04966717
-3.391993	waterfront	-0.04966718
-3.391993	way	-0.04966718
-2.693023	we	-0.1465772
-3.391993	weapons	-0.04966717
-3.391993	wearing	-0.04966718
-2.693023	wednesday	-0.04966717
-3.391993	welcome	-0.04966718
-3.090963	well	-0.04966718
-2.04957	were	-0.06815057
-3.090963	west	-0.04966718
-3.391993	western	-0.04966718
-3.090963	what	-0.04966717
-2.789933	when	-0.04966718
-3.090963	where	-0.04966718
-2.693023	which	-0.04966717
-3.391993	while	-0.04966718
-3.090963	white	-0.04966718
-2.789933	who	-0.04966717
-3.090963	wife	-0.04966717
-2.914872	will	-0.2257584
-2.27805	with	-0.08185185
-3.391993	without	-0.04966717
-3.090963	witnesses	-0.3506972
-3.391993	woman	-0.04966718
-2.914872	women	-0.5267885
-3.391993	won	-0.04966717
-3.391993	wong	-0.04966717
-3.391993	wood	-0.04966717
-3.391993	work	-0.04966717
-3.090963	worked	-0.04966717
-3.090963	world	-0.04966718
-3.391993	worse	-0.04966717
-2.613842	would	-0.1288484
-3.391993	yards	-0.04966718
-2.914872	year	-0.1746059
-2.789933	years	-0.04966718
-3.090963	yellow	-0.04966718
-3.391993	yen	-0.04966718
-3.391993	yet	-0.04966717
-3.391993	yong-se	-0.04966717
-3.391993	youth	-0.04966717

\2-grams:
-2.179145	" '	-0.0249047
-2.256893	" </s>
-1.633431	" and	-0.02490469
-2.113226	" as	-0.02490469
-2.388479	" give	-0.0249047
-2.093303	" has	-0.02490469
-2.134107	" he	-0.02490469
-2.02166	" hong	-0.02490473
-2.286243	" hu	-0.02490469
-2.35166	" i	-0.0249047
-2.256893	" it	-0.02490469
-2.317721	" lockhart	-0.02490471
-2.317721	" once	-0.0249047
-2.113226	" one	-0.02490469
-2.256893	" president	-0.02490469
-2.388479	" reunification	-0.0249047
-2.093303	" said	-0.02490469
-2.388479	" special	-0.02490469
-2.35166	" stricter	-0.02490469
-2.388479	" substantive	-0.02490469
-1.582506	" the	-0.02490469
-2.286243	" there	-0.02490469
-2.388479	" these	-0.0249047
-2.317721	" things	-0.0249047
-2.179145	" thursday	-0.02490469
-2.388479	" unification	-0.0249047
-2.256893	" we	-0.0249047
-2.35166	" what	-0.02490469
-2.256893	" which	-0.02490469
-1.865988	' </s>
-1.865988	' are	-0.0249047
-1.909079	' carelessness	-0.02490469
-1.909079	' complaints	-0.0249047
-1.817518	' is	-0.02490469
-1.808441	' one	-0.02490469
-1.909079	' regime	-0.0249047
-0.894083	' two	-0.3259347
-2.134107	's "	-0.02490469
-2.388479	's 18-year	-0.02490469
-2.388479	's appearances	-0.0249047
-2.388479	's authority	-0.02490469
-2.388479	's breakup	-0.02490468
-2.388479	's court	-0.0249047
-2.388479	's help	-0.02490468
-2.286243	's home	-0.02490469
-2.388479	's july	-0.02490469
-2.388479	's justices	-0.02490468
-2.388479	's liberation	-0.0249047
-2.388479	's marianne	-0.0249047
-2.388479	's mini-constitution	-0.0249047
-2.388479	's ministry	-0.0249047
-2.317721	's once	-0.02490469
-2.388479	's one-party	-0.02490469
-2.256893	's president	-0.02490469
-2.388479	's resources	-0.02490469
-2.388479	's retirement	-0.02490469
-2.35166	's ruling	-0.02490469
-2.388479	's sacking	-0.02490469
-2.317721	's second	-0.02490469
-2.388479	's soccer	-0.0249047
-2.286243	's tamil	-0.02490469
-2.286243	's there	-0.02490469
-2.35166	's too	-0.02490469
-2.35166	's west	-0.02490469
-2.35166	's wife	-0.02490469
-2.35166	's world	-0.02490469
-1.413933	't be	-0.02490469
-1.401879	't have	-0.02490469
-1.439094	't understand	-0.0249047
-1.907665	( 1.83	-0.0249047
-1.907665	( 130	-0.0249047
-1.907665	( 60	-0.0249047
-1.907665	( centimeter	-0.02490469
-1.907665	( centimeters	-0.02490469
-1.907665	( dlrs	-0.02490469
-1.907665	( gp-dj	-0.02490469
-1.907665	( tjh	-0.02490469
-1.907665	( yards	-0.02490469
-0.5841714	) ,	-0.0249047
-0.9054448	) </s>
-1.631893	) a	-0.02490469
-1.911919	) north	-0.0249047
-1.597406	) of	-0.02490469
-1.911919	) southwest	-0.0249047
-0.9379061	, "	-0.2679427
-2.852156	, 100	-0.0249047
-2.932344	, 1997	-0.0249047
-2.932344	, 26	-0.0249047
-2.932344	, 37	-0.0249047
-2.932344	, 3rd	-0.02490469
-1.195224	, a	-0.02490469
-2.784491	, aarones	-0.02490469
-2.548617	, about	-0.02490469
-2.932344	, activists	-0.02490469
-2.932344	, along	-0.02490469
-2.396615	, an	-0.02490469
-1.509067	, and	-0.02490469
-2.451207	, as	-0.02490469
-2.932344	, b.	-0.02490469
-2.784491	, began	-0.02490469
-1.556869	, but	-0.02490469
-2.852156	, called	-0.02490469
-2.932344	, chants	-0.0249047
-2.628299	, china	-0.02490469
-2.725961	, chinese	-0.02490469
-2.932344	, climbing	-0.02490469
-2.725961	, clinton	-0.02490469
-2.932344	, commonly	-0.02490469
-2.674391	, company	-0.02490469
-2.674391	, could	-0.02490469
-2.932344	, especially	-0.02490469
-2.932344	, even	-0.02490469
-2.932344	, except	-0.02490469
-2.932344	, granted	-0.02490469
-2.586633	, had	-0.02490469
-2.932344	, handover	-0.02490469
-2.481313	, he	-0.0249047
-2.481313	, his	-0.02490469
-2.325769	, hong	-0.02490473
-2.932344	, hours	-0.02490469
-2.784491	, how	-0.0249047
-2.852156	, huge	-0.0249047
-1.87765	, in	-0.02490469
-2.784491	, including	-0.02490469
-2.725961	, leader	-0.02490469
-2.784491	, local	-0.02490469
-2.784491	, lockhart	-0.02490471
-2.548617	, mahathir	-0.02490469
-2.00925	, making	-0.02490468
-2.784491	, many	-0.02490469
-2.932344	, massachusetts	-0.02490469
-2.932344	, narrow	-0.02490469
-2.932344	, neighbors	-0.02490469
-2.852156	, nishizawa	-0.02490467
-2.784491	, norway	-0.0249047
-2.725961	, now	-0.0249047
-1.950352	, ntt	-0.02490469
-2.28424	, on	-0.02490469
-2.451207	, one	-0.02490469
-2.932344	, or	-0.02490469
-2.932344	, outshooting	-0.0249047
-2.852156	, parents	-0.02490469
-2.852156	, played	-0.02490469
-2.674391	, police	-0.0249047
-2.423054	, said	-0.02490469
-1.734947	, saying	-0.200996
-2.932344	, sending	-0.02490469
-2.932344	, shares	-0.0249047
-1.988717	, she	-0.02490469
-2.932344	, sub-standard	-0.0249047
-2.852156	, such	-0.02490469
-2.725961	, teachers	-0.02490469
-1.119366	, the	-0.0249047
-2.932344	, towing	-0.0249047
-2.371693	, two	-0.02490469
-1.713143	, which	-0.02490469
-1.718493	, who	-0.02490469
-2.784491	, will	-0.0249047
-2.852156	, witnesses	-0.02490467
-2.932344	, wood	-0.02490469
-1.423569	. "	-0.4228447
-2.895591	. (	-0.02490469
-0.06767404	. </s>
-2.571481	. a	-0.02490469
-2.962205	. aarones	-0.02490469
-2.871566	. he	-0.02490469
-2.94804	. more	-0.0249047
-2.992002	. no	-0.02490469
-1.980004	. one	-0.02490469
-2.934322	. we	-0.0249047
-2.976849	. white	-0.02490469
-0.8312366	1 ,	-0.02490469
-0.9634144	1.48 million	-0.02490469
-0.9634144	1.6 million	-0.02490469
-0.9634144	1.83 meters	-0.02490469
-1.258707	10 minutes	-0.02490469
-1.255866	10 years	-0.02490469
-1.264444	100 anti-independence	-0.02490469
-1.261566	100 kilometers	-0.02490467
-0.9548362	12,242 )	-0.02490469
-0.9634144	130 miles	-0.02490467
-0.9634144	15 tests	-0.02490469
-0.9605361	156 years	-0.02490469
-0.9534228	18 children	-0.02490469
-0.9648607	18-year grip	-0.02490469
-0.2551905	19 children	-0.3259347
-0.8312366	1983 ,	-0.02490469
-0.9409054	1989 on	-0.02490471
-0.8333719	1996 .	-0.02490467
-0.8312366	1997 ,	-0.02490469
-0.8966281	2-0 in	-0.02490469
-0.8333719	200,000 .	-0.02490467
-0.8312366	2000 ,	-0.02490469
-0.9534228	21 children	-0.0249047
-0.8312366	21,411 ,	-0.02490469
-0.9634144	210 kilometers	-0.02490467
-0.8333719	24-2 .	-0.02490467
-0.8312366	26 ,	-0.02490469
-0.8333719	3-0 .	-0.02490467
-0.9648607	3-1 victory	-0.0249047
-0.8312366	37 ,	-0.02490469
-0.9648607	3rd graf	-0.02490469
-0.9534228	400 children	-0.0249047
-0.9634144	450 kindergarten	-0.02490469
-0.9648607	5,000 short	-0.0249047
-0.9634144	50 meters	-0.02490469
-0.9619728	51st minute	-0.02490469
-0.9648607	54 freight	-0.0249047
-0.9619728	55th minute	-0.02490469
-0.9591041	58,000 people	-0.02490469
-0.9648607	6 feet	-0.02490469
-0.9648607	6-year-old twin	-0.02490469
-0.9634144	60 miles	-0.02490467
-0.9634144	600 kids	-0.02490469
-0.9591041	73-year-old prime	-0.0249047
-0.7955249	<s> "	-0.44591
-2.776467	<s> (	-0.02490469
-1.821355	<s> ,	-0.02490469
-1.530882	<s> a	-0.1218147
-2.135319	<s> about	-0.3259347
-1.748962	<s> all	-0.3259347
-2.135319	<s> also	-0.3259347
-3.128797	<s> although	-0.02490469
-1.871833	<s> and	-0.3259347
-3.128797	<s> ann	-0.02490469
-2.894603	<s> anwar	-0.02490469
-1.720772	<s> as	-0.3259347
-2.656702	<s> at	-0.02490469
-2.996102	<s> australian	-0.0249047
-2.168031	<s> balachandran	-0.0249047
-1.531794	<s> but	-0.3259347
-2.168031	<s> center	-0.3259347
-2.942394	<s> clinton	-0.02490469
-2.996102	<s> each	-0.02490469
-2.996102	<s> earlier	-0.0249047
-2.996102	<s> early	-0.02490469
-2.19429	<s> fearing	-0.3259347
-2.168031	<s> former	-0.0249047
-2.159619	<s> government	-0.3259347
-1.610167	<s> he	-0.1218147
-3.128797	<s> hege	-0.02490469
-1.705867	<s> hong	-0.6269647
-1.611426	<s> in	-0.1498434
-3.128797	<s> investors	-0.02490469
-2.894603	<s> it	-0.0249047
-2.996102	<s> japan	-0.02490468
-3.128797	<s> japanese	-0.0249047
-2.776467	<s> mahathir	-0.02490469
-2.996102	<s> many	-0.02490469
-2.168031	<s> more	-0.3259347
-2.176608	<s> most	-0.3259347
-2.996102	<s> norway	-0.02490469
-2.143269	<s> ntt	-0.02490469
-2.996102	<s> once	-0.02490469
-1.389098	<s> police	-0.6269647
-2.159619	<s> prime	-0.3259347
-3.128797	<s> returning	-0.02490469
-2.19429	<s> security	-0.3259347
-3.128797	<s> separately	-0.0249047
-3.128797	<s> silje	-0.02490469
-2.894603	<s> since	-0.0249047
-2.19429	<s> some	-0.3259347
-2.176608	<s> south	-0.3259347
-3.128797	<s> speaking	-0.02490469
-2.19429	<s> styrofoam	-0.3259347
-0.8076044	<s> the	-0.1775149
-2.168031	<s> there	-0.3259347
-2.996102	<s> things	-0.02490469
-2.159619	<s> this	-0.3259347
-3.128797	<s> three	-0.0249047
-2.776467	<s> thursday	-0.02490469
-1.711768	<s> two	-0.3259346
-3.128797	<s> u.s.	-0.0249047
-3.057401	<s> under	-0.02490469
-3.128797	<s> unidentified	-0.0249047
-2.19429	<s> wailing	-0.3259347
-3.057401	<s> walters	-0.0249047
-2.159619	<s> we	-0.3259347
-3.128797	<s> while	-0.0249047
-1.714748	<s> with	-0.3259347
-0.9548362	? they	-0.02490469
-1.275548	_ a	-0.02490469
-1.430544	_ both	-0.02490469
-1.356753	_ for	-0.02490469
-2.733407	a 3-1	-0.02490469
-2.733407	a bare-chested	-0.02490469
-2.733407	a black	-0.02490469
-2.658732	a blaze	-0.02490469
-2.733407	a boat	-0.02490469
-2.595033	a camp	-0.02490469
-2.733407	a chance	-0.0249047
-2.733407	a collision	-0.02490469
-2.733407	a concrete	-0.02490469
-2.658732	a construction	-0.02490469
-2.733407	a crime	-0.02490468
-2.733407	a decision	-0.02490469
-2.733407	a dozen	-0.02490469
-2.733407	a drawn-out	-0.02490469
-1.793632	a few	-0.02490469
-2.658732	a final	-0.02490469
-2.733407	a finalist	-0.02490468
-2.733407	a flag-raising	-0.0249047
-2.733407	a formation	-0.0249047
-2.539493	a former	-0.02490469
-2.733407	a formula	-0.02490469
-2.658732	a free	-0.0249047
-2.733407	a fund-raising	-0.02490469
-2.733407	a general	-0.0249047
-2.658732	a goal	-0.02490469
-2.733407	a golf	-0.02490469
-1.766422	a government	-0.02490469
-2.658732	a holding	-0.0249047
-2.733407	a host	-0.0249047
-2.658732	a long	-0.02490469
-2.658732	a long-distance	-0.0249047
-1.803094	a major	-0.02490469
-2.733407	a makeshift	-0.02490469
-2.595033	a match	-0.02490469
-2.733407	a migrant	-0.02490469
-2.595033	a minute	-0.02490469
-2.658732	a moderate	-0.02490469
-2.595033	a national	-0.02490469
-2.733407	a nationwide	-0.02490469
-2.595033	a penalty	-0.02490469
-2.733407	a pharmaceutical	-0.0249047
-2.733407	a public	-0.02490469
-2.658732	a quarterfinal	-0.0249047
-2.658732	a recent	-0.02490469
-2.733407	a retiree	-0.02490469
-2.733407	a roll	-0.0249047
-2.733407	a scoreless	-0.0249047
-2.733407	a semifinal	-0.0249047
-2.733407	a share	-0.02490469
-2.658732	a shot	-0.02490469
-2.733407	a show	-0.0249047
-2.733407	a shutout	-0.02490469
-2.733407	a similar	-0.0249047
-2.733407	a six-year	-0.02490469
-2.733407	a soft	-0.0249047
-2.733407	a star	-0.02490469
-2.595033	a state	-0.02490469
-2.733407	a summer	-0.0249047
-2.733407	a tamil-majority	-0.02490469
-2.733407	a teacher	-0.02490469
-2.658732	a third-floor	-0.02490469
-2.733407	a thorough	-0.02490469
-2.733407	a tough	-0.0249047
-2.733407	a two-day	-0.02490469
-2.733407	a viking	-0.02490469
-2.733407	a virtual	-0.02490469
-2.658732	a vote	-0.02490469
-2.595033	a women	-0.02490467
-2.658732	a yellow	-0.02490469
-1.439094	aarones leaped	-0.02490469
-1.426331	aarones used	-0.02490469
-1.37873	aarones was	-0.02490469
-0.9648607	abdullah ahmad	-0.02490469
-1.849514	about 10	-0.02490469
-1.859344	about 200,000	-0.02490469
-1.859344	about 450	-0.0249047
-1.859344	about 5,000	-0.02490469
-1.839902	about how	-0.02490469
-1.849514	about such	-0.0249047
-0.8009856	about the	-0.02490469
-0.9648607	absolutely manage	-0.02490469
-0.8929296	abuse of	-0.02490469
-0.9648607	accommodating 600	-0.0249047
-0.8333719	accountant .	-0.02490467
-0.9395366	accusations that	-0.02490469
-0.9648607	activists chanted	-0.02490469
-0.8312366	adams ,	-0.02490469
-0.8333719	added .	-0.02490467
-0.9634144	adjourned until	-0.02490469
-0.9648607	administrative region	-0.0249047
-1.610715	adults '	-0.02490469
-1.21958	adults .	-0.02490467
-1.610715	adults also	-0.02490469
-1.393391	adults in	-0.02490469
-1.529143	adults were	-0.02490469
-0.2501316	advantage to	-0.3259347
-0.9634144	affluent territory	-0.02490469
-1.805634	after 156	-0.02490469
-0.5074264	after a	-0.02490469
-1.746707	after at	-0.02490469
-0.7667262	after the	-0.02490469
-0.8312366	again ,	-0.02490469
-1.439094	against him	-0.0249047
-1.401879	against his	-0.02490469
-1.233239	against the	-0.02490469
-0.9562542	ago after	-0.02490469
-0.9395366	agree that	-0.02490469
-0.9053823	agreed to	-0.02490469
-0.9648607	ahmad badawi	-0.02490469
-0.9648607	air force	-0.02490469
-1.439094	all bodies	-0.02490469
-1.252471	all of	-0.02490468
-1.356753	all were	-0.02490469
-0.8844203	allowed the	-0.02490469
-0.9478149	along with	-0.0249047
-0.9648607	already squarely	-0.02490469
-1.871146	also died	-0.0249047
-1.907665	also facing	-0.02490469
-1.907665	also included	-0.02490469
-1.907665	also injured	-0.02490468
-1.907665	also manages	-0.02490468
-1.732411	also on	-0.02490469
-1.895148	also spoke	-0.02490469
-1.871146	also used	-0.02490469
-1.699741	also were	-0.02490469
-0.943656	altar was	-0.02490469
-0.9520141	although he	-0.02490469
-0.902863	amid a	-0.02490469
-0.9354559	amnesty for	-0.02490469
-0.8844203	among the	-0.02490469
-2.064553	an accountant	-0.02490469
-2.064553	an audience	-0.0249047
-1.064725	an early	-0.02490469
-2.049399	an election	-0.02490469
-2.064553	an electrical	-0.02490469
-1.064725	an end	-0.3259347
-2.064553	an imposing	-0.02490469
-2.064553	an independent	-0.02490469
-2.020591	an investigation	-0.02490469
-2.064553	an on-going	-0.02490469
-2.064553	an update	-0.02490469
-1.492692	and a	-0.02490469
-2.377215	and about	-0.02490468
-2.6935	and accusations	-0.02490469
-2.410555	and after	-0.0249047
-2.240663	and an	-0.02490469
-2.631644	and arrest	-0.02490469
-2.290257	and as	-0.0249047
-2.6935	and asked	-0.02490469
-2.529381	and center	-0.02490469
-2.6935	and civil	-0.0249047
-2.577509	and communications	-0.02490469
-2.6935	and dealt	-0.02490469
-2.529381	and died	-0.0249047
-2.6935	and elementary	-0.02490469
-2.631644	and financial	-0.02490469
-2.577509	and fire	-0.02490469
-2.631644	and forensic	-0.0249047
-1.747187	and four	-0.3259347
-2.631644	and free	-0.02490469
-2.6935	and frequent	-0.02490469
-2.6935	and grandmothers	-0.02490469
-2.410555	and had	-0.02490469
-2.175504	and hong	-0.02490473
-1.748691	and in	-0.02490469
-1.747187	and international	-0.0249047
-2.6935	and irish	-0.02490469
-2.346254	and its	-0.02490469
-2.631644	and killed	-0.02490469
-2.6935	and landed	-0.02490468
-2.6935	and lofted	-0.02490469
-2.577509	and nippon	-0.02490467
-2.410555	and ntt	-0.02490469
-2.290257	and one	-0.0249047
-1.471451	and other	-0.02490469
-2.6935	and proclaimed	-0.02490469
-2.6935	and punishment	-0.0249047
-2.6935	and queensland	-0.02490469
-2.6935	and resolve	-0.0249047
-2.6935	and sinn	-0.02490469
-2.6935	and split	-0.0249047
-2.6935	and struck	-0.0249047
-2.631644	and swedes	-0.02490469
-2.6935	and t	-0.0249047
-1.725186	and teachers	-0.02490468
-2.577509	and telecommunications	-0.02490469
-2.631644	and telephone	-0.0249047
-1.278332	and the	-0.02490469
-2.446668	and their	-0.02490469
-2.6935	and touched	-0.02490469
-2.6935	and tumbled	-0.0249047
-2.21784	and two	-0.02490469
-2.068755	and were	-0.02490469
-1.725186	and when	-0.02490469
-2.631644	and witnesses	-0.02490467
-0.9648607	ann kristin	-0.0249047
-0.8929296	anniversary of	-0.02490469
-1.029386	announced ,	-0.02490469
-1.247454	announced ntt	-0.02490469
-0.9619728	anti-china protesters	-0.02490469
-0.9648607	anti-independence militia	-0.02490469
-0.8333719	anticipated .	-0.0249047
-1.550929	anwar 's	-0.02490469
-1.650984	anwar denies	-0.0249047
-1.658074	anwar ibrahim	-0.02490469
-1.598081	anwar is	-0.02490469
-1.658074	anwar won	-0.02490469
-1.264444	any conspiracy	-0.0249047
-1.261566	any mainland	-0.02490469
-0.9648607	apparent violation	-0.0249047
-0.9634144	appeal ruled	-0.02490469
-0.8312366	appearances ,	-0.02490469
-0.9053823	appeared to	-0.02490469
-0.7314644	are being	-0.02490469
-1.737255	are changing	-0.02490469
-1.737255	are convinced	-0.02490469
-1.737255	are going	-0.02490469
-1.737255	are wasting	-0.0249047
-0.8333719	area .	-0.02490469
-1.177564	armed ,	-0.02490469
-1.562596	armed forces	-0.02490469
-1.55127	armed guards	-0.02490469
-1.562596	armed struggle	-0.0249047
-0.9053823	arms to	-0.02490469
-0.9605361	around hu	-0.0249047
-1.255866	arrest last	-0.02490469
-1.264444	arrest warrants	-0.02490469
-0.8333719	arrested .	-0.02490467
-2.029791	as 1.48	-0.0249047
-2.014637	as high	-0.02490469
-1.844351	as hong	-0.02490473
-1.985829	as hu	-0.02490469
-1.999994	as norwegian	-0.02490469
-1.94591	as ntt	-0.02490469
-1.972111	as officials	-0.02490469
-1.999994	as part	-0.0249047
-1.972111	as police	-0.02490469
-1.529271	as the	-0.02490469
-1.022316	as they	-0.02490469
-0.9605361	asked chinese	-0.02490469
-0.9354559	asking for	-0.02490469
-0.8333719	asleep .	-0.02490467
-1.013207	at a	-0.02490469
-1.936742	at an	-0.02490469
-1.660857	at and	-0.02490469
-2.030847	at balachandran	-0.02490469
-2.067366	at foxboro	-0.0249047
-2.030847	at home	-0.02490469
-1.976074	at its	-0.02490469
-2.054849	at rallies	-0.02490469
-0.5941297	at the	-0.1498434
-1.182319	attack .	-0.02490467
-1.545716	attack last	-0.02490469
-1.562596	attack occurred	-0.02490468
-1.474606	attack on	-0.0249047
-0.9520141	attacked by	-0.02490469
-0.902863	attending a	-0.02490469
-0.9534228	audible from	-0.02490469
-0.8929296	audience of	-0.02490469
-0.8941589	australia and	-0.02490469
-0.4311404	australian police	-0.02490468
-1.440536	australian test	-0.02490469
-0.8941589	authority and	-0.02490469
-0.2415548	autonomy .	-0.3259347
-0.902863	avoided a	-0.02490469
-0.902863	awarded a	-0.0249047
-0.9492102	away at	-0.02490469
-0.9648607	azizah ismail	-0.02490469
-0.9605361	b. balachandran	-0.02490468
-0.9605361	back now	-0.02490469
-0.8941589	badawi and	-0.02490469
-1.571517	balachandran 's	-0.02490469
-0.5966173	balachandran ,	-0.02490469
-1.659506	balachandran belongs	-0.02490469
-1.659506	balachandran couldn	-0.0249047
-0.8941589	ball and	-0.02490469
-0.9634144	banded together	-0.02490469
-0.8333719	banner .	-0.02490467
-0.9648607	bare-chested male	-0.02490469
-0.9648607	basic law	-0.0249047
-1.515589	be a	-0.02490469
-1.825214	be armed	-0.02490469
-1.857926	be carried	-0.02490468
-1.857926	be notified	-0.02490469
-1.857926	be permitted	-0.02490469
-1.857926	be reached	-0.02490469
-1.857926	be safer	-0.02490469
-1.846746	be taken	-0.02490469
-0.5560791	because it	-0.02490469
-0.5421741	because of	-0.02490469
-1.356389	been a	-0.02490469
-1.562596	been changed	-0.02490469
-1.556896	been fighting	-0.02490469
-1.338903	been in	-0.02490469
-0.902863	befitting a	-0.0249047
-1.3321	before and	-0.02490469
-1.562596	before firefighters	-0.0249047
-1.556896	before parents	-0.02490469
-1.305909	before the	-0.0249047
-1.39015	began an	-0.02490469
-1.439094	began meetings	-0.02490469
-1.439094	began rallying	-0.02490469
-0.9634144	behind any	-0.02490469
-0.6443157	beijing 's	-0.02490469
-1.274474	beijing ,	-0.02490469
-1.600579	beijing has	-0.02490469
-1.553169	beijing were	-0.02490469
-1.562596	being blurred	-0.0249047
-1.562596	being controlled	-0.02490469
-1.556896	being heard	-0.02490469
-1.562596	being met	-0.02490469
-0.9053823	belongs to	-0.0249047
-0.9648607	between familiar	-0.02490469
-0.9648607	beyond recognition	-0.0249047
-0.9605361	bill clinton	-0.02490469
-0.9520141	black "	-0.02490469
-1.258707	blair _	-0.02490469
-1.261566	blair gave	-0.02490469
-0.9409054	blame on	-0.02490471
-1.126545	blaze .	-0.02490467
-1.439094	blaze broke	-0.02490468
-1.367603	blaze that	-0.02490469
-0.9648607	block structure	-0.0249047
-0.9534228	blocked from	-0.02490469
-0.8941589	blocks and	-0.02490469
-0.8312366	blurred ,	-0.02490469
-0.9648607	boat parade	-0.02490469
-0.9354559	bodies were	-0.02490469
-0.8333719	born .	-0.02490467
-1.426331	both before	-0.02490469
-1.439094	both domestic	-0.02490469
-1.252471	both of	-0.02490469
-0.8966281	breakup in	-0.02490469
-0.8333719	britain .	-0.02490467
-1.25529	british and	-0.02490469
-1.422159	british prime	-0.0249047
-1.439094	british rule	-0.02490469
-0.9648607	british-style judiciary	-0.02490469
-0.9562542	broke out	-0.02490469
-0.9053823	brought to	-0.02490469
-0.8844203	build the	-0.02490469
-1.126545	building .	-0.02490467
-1.439094	building codes	-0.02490469
-1.260982	building in	-0.02490469
-0.8844203	built the	-0.02490469
-0.9648607	burned beyond	-0.02490469
-0.4032314	business .	-0.02490467
-1.440536	business operations	-0.02490468
-1.907665	but anti-china	-0.0249047
-1.907665	but critics	-0.0249047
-1.895148	but few	-0.02490469
-1.806201	but he	-0.02490469
-1.826789	but mahathir	-0.02490469
-1.871146	but not	-0.02490469
-1.463035	but the	-0.02490469
-1.749717	but was	-0.02490469
-1.699741	but were	-0.02490469
-0.9548362	butchers '	-0.02490469
-1.571481	by a	-0.02490469
-1.94804	by armed	-0.02490469
-1.992002	by asking	-0.02490469
-1.934322	by beijing	-0.0249047
-1.883412	by children	-0.0249047
-1.871566	by his	-0.02490469
-1.94804	by more	-0.0249047
-1.992002	by relatives	-0.02490469
-1.976848	by several	-0.02490469
-1.94804	by teachers	-0.0249047
-1.491482	by the	-0.02490469
-1.39015	call an	-0.02490469
-1.439094	call lasted	-0.02490469
-1.252471	call of	-0.02490469
-1.231104	called an	-0.0249047
-1.116578	called the	-0.02490469
-1.24082	camp ,	-0.02490469
-1.246324	camp .	-0.02490467
-1.735828	camp accommodating	-0.02490469
-1.702909	camp dormitory	-0.02490469
-1.433928	camp in	-0.02490469
-1.735828	camp overlooking	-0.0249047
-1.430544	can 't	-0.02490469
-1.439094	can absolutely	-0.02490469
-1.439094	can spread	-0.0249047
-0.8941589	canberra and	-0.02490469
-0.8333719	capacity .	-0.02490467
-0.8312366	capital ,	-0.02490469
-0.9648607	captain paul	-0.02490469
-0.8333719	card .	-0.02490467
-0.8333719	carelessness .	-0.02490467
-0.9562542	carried out	-0.02490469
-0.8312366	carrier ,	-0.02490469
-0.9562542	cases out	-0.02490469
-0.8844203	catch the	-0.02490469
-0.8844203	caused the	-0.02490469
-0.8333719	causes .	-0.02490467
-0.9648607	celebrate ?	-0.02490469
-0.9648607	celebrating amid	-0.02490469
-0.9506099	celebration as	-0.02490469
-0.8312366	celebrations ,	-0.02490469
-1.177564	center ,	-0.02490469
-1.338903	center in	-0.02490469
-1.540232	center officials	-0.02490469
-1.562596	center staff	-0.02490468
-0.9548362	centimeter )	-0.02490469
-0.9548362	centimeters )	-0.0249047
-0.1453364	ceremony .	-0.5020259
-1.241935	challenge from	-0.0249047
-1.152989	challenge to	-0.02490469
-0.9520141	challenged by	-0.02490469
-0.9619728	champion norway	-0.02490469
-0.8312366	chance ,	-0.02490469
-0.8333719	changed .	-0.0249047
-0.9648607	changing faster	-0.0249047
-0.9354559	chanted for	-0.02490469
-0.9648607	chanting nearby	-0.0249047
-0.8929296	chants of	-0.02490469
-0.8844203	characterize the	-0.02490469
-0.8333719	charge .	-0.02490469
-1.258707	charges against	-0.02490469
-1.137625	charges in	-0.0249047
-0.9648607	charred ruins	-0.02490469
-0.9591041	checked we	-0.02490469
-0.8333719	chee-hwa .	-0.02490467
-0.9634144	chief executive	-0.02490469
-1.133333	child and	-0.02490469
-1.223154	child was	-0.02490469
-1.474852	children .	-0.0249047
-0.3304019	children and	-0.02490469
-1.913347	children framed	-0.02490469
-1.859625	children from	-0.02490469
-1.906257	children tripped	-0.02490469
-0.7854859	china 's	-0.02490469
-1.307767	china ,	-0.02490469
-1.717644	china at	-0.02490468
-1.802775	china defeated	-0.02490469
-1.739257	china from	-0.02490469
-1.500875	china in	-0.02490469
-1.385688	chinese and	-0.02490469
-1.658074	chinese congress	-0.0249047
-1.658074	chinese lawmakers	-0.02490469
-1.658074	chinese vice	-0.0249047
-1.579794	chinese with	-0.02490469
-0.9648607	chipping away	-0.02490468
-0.8312366	chrysanthemums ,	-0.02490469
-0.9520141	citizens have	-0.02490469
-0.9619728	civil service	-0.02490469
-0.9506099	climbing as	-0.0249047
-1.524184	clinton also	-0.02490469
-1.498688	clinton an	-0.02490469
-1.562596	clinton pleaded	-0.02490469
-1.562596	clinton talked	-0.02490469
-0.9053823	close to	-0.0249047
-0.8966281	club in	-0.0249047
-0.8333719	coast .	-0.02490467
-0.8333719	codes .	-0.02490467
-0.9562542	collapsed into	-0.02490469
-0.9395366	collision that	-0.02490469
-1.029386	colombo ,	-0.02490469
-1.032761	colombo .	-0.02490467
-0.902863	come a	-0.0249047
-0.8333719	comments .	-0.02490467
-0.9648607	commonly known	-0.02490469
-1.422159	communications corp.	-0.02490469
-1.439094	communications industry	-0.02490469
-1.439094	communications network	-0.02490469
-0.9634144	communist system	-0.02490469
-1.133333	companies and	-0.02490469
-1.264444	companies offering	-0.0249047
-1.68734	company after	-0.02490469
-1.425478	company and	-0.02490469
-1.727361	company executive	-0.02490469
-1.727361	company long	-0.0249047
-1.702909	company officials	-0.02490469
-1.735828	company oversees	-0.0249047
-0.8929296	complaints of	-0.02490469
-0.9648607	concrete block	-0.02490469
-0.902863	conduct a	-0.02490469
-0.9576768	confiscated their	-0.02490469
-0.9634144	congress ruled	-0.02490469
-0.9619728	conspiracy against	-0.0249047
-0.943656	constitution was	-0.02490469
-1.133333	construction and	-0.02490469
-1.131203	construction of	-0.02490468
-0.9619728	consulting business	-0.0249047
-0.8844203	contain the	-0.02490469
-1.032761	containers .	-0.02490467
-1.207677	containers were	-0.02490469
-0.8312366	control ,	-0.02490469
-0.9520141	controlled by	-0.02490469
-0.8312366	conversation ,	-0.02490469
-0.9354559	conversations were	-0.02490469
-0.8844203	converted the	-0.02490469
-0.9395366	convinced that	-0.02490469
-0.8929296	corner of	-0.02490468
-1.214402	corp. ,	-0.02490469
-1.385688	corp. and	-0.02490469
-1.658074	corp. covering	-0.02490469
-1.393391	corp. in	-0.0249047
-1.658074	corp. officially	-0.02490469
-0.9634144	corporate reorganization	-0.02490469
-0.9648607	corridor stretching	-0.02490469
-1.617173	could be	-0.02490469
-1.658074	could contain	-0.0249047
-1.658074	could cut	-0.0249047
-1.644008	could face	-0.02490469
-1.644008	could get	-0.02490469
-0.9619728	couldn 't	-0.02490469
-1.420777	country '	-0.02490469
-0.4027017	country ,	-0.02490469
-0.8941589	course and	-0.02490469
-0.8929296	court of	-0.02490469
-0.9648607	covering eastern	-0.0249047
-0.8966281	crime in	-0.02490469
-0.9634144	criminal charges	-0.02490469
-0.9634144	critics say	-0.02490469
-0.8929296	crowd of	-0.02490469
-1.264444	crowds showed	-0.02490469
-1.261566	crowds turned	-0.02490469
-0.9354559	crucial for	-0.02490469
-0.9648607	cruel manner	-0.02490468
-0.9520141	crushed by	-0.02490469
-0.9634144	cup quarterfinal	-0.0249047
-0.8312366	cups ,	-0.02490469
-0.9354559	custody for	-0.02490469
-0.8844203	cut the	-0.02490469
-0.9492102	dae-jung said	-0.02490469
-0.9591041	data corp.	-0.02490469
-0.8333719	daughters .	-0.02490467
-0.9648607	david trimble	-0.02490469
-0.9478149	day with	-0.02490469
-0.9053823	days to	-0.02490469
-0.5142186	dead .	-0.02490473
-1.530799	dead children	-0.02490469
-1.547098	dead could	-0.02490469
-0.9478149	dealt with	-0.02490469
-0.9648607	death toll	-0.0249047
-0.9534228	decade from	-0.02490469
-0.9648607	december 1989	-0.02490469
-0.9395366	decision that	-0.02490469
-0.9053823	declined to	-0.02490469
-0.9648607	defeated russia	-0.02490469
-1.032761	defenders .	-0.02490467
-1.133333	defenders and	-0.02490469
-0.9648607	defending champion	-0.0249047
-0.9053823	deferred to	-0.02490469
-0.9634144	demanded stricter	-0.02490469
-0.9478149	demanding an	-0.02490469
-0.9605361	democratic party	-0.0249047
-1.137625	demonstrations in	-0.02490469
-1.215347	demonstrations that	-0.02490469
-0.9354559	demonstrators were	-0.02490469
-0.247763	denies the	-0.02490469
-1.122361	deputy ,	-0.02490469
-1.439094	deputy abdullah	-0.02490469
-1.422159	deputy prime	-0.0249047
-0.9619728	didn 't	-0.0249047
-1.251484	died .	-0.0249047
-1.55127	died because	-0.0249047
-0.5359243	died in	-0.0249047
-0.9634144	different third-floor	-0.02490469
-0.9619728	dignitaries including	-0.02490469
-0.8333719	dilemma .	-0.02490467
-0.9648607	dinner here	-0.02490469
-0.9520141	discrimination by	-0.02490469
-0.9354559	dissent were	-0.02490469
-0.9648607	dlrs 12,242	-0.02490469
-0.8941589	dna and	-0.02490469
-0.8312366	docomo ,	-0.0249047
-0.8941589	domestic and	-0.02490469
-1.24082	dormitory ,	-0.02490469
-1.246324	dormitory .	-0.02490467
-1.650698	dormitory at	-0.02490468
-1.433928	dormitory in	-0.02490469
-1.727361	dormitory made	-0.02490469
-1.623459	dormitory was	-0.02490469
-0.9548362	doubts about	-0.02490469
-1.029386	down ,	-0.02490469
-1.116578	down the	-0.02490469
-0.9605361	dozen former	-0.02490469
-0.9648607	drawn-out recession	-0.02490469
-0.9520141	dubbed "	-0.02490469
-1.430544	each call	-0.02490469
-1.430544	each end	-0.0249047
-1.252471	each of	-0.02490468
-1.394025	earlier said	-0.0249047
-1.422159	earlier this	-0.02490469
-1.422159	earlier wednesday	-0.02490469
-1.556896	early election	-0.02490469
-1.338903	early in	-0.0249047
-1.55127	early second	-0.0249047
-1.524184	early thursday	-0.02490471
-0.9619728	earned norwegian	-0.02490469
-1.429135	east corp.	-0.02490469
-0.4322723	east timor	-0.02490469
-0.9619728	eastern japan	-0.02490469
-0.8941589	economy and	-0.02490469
-0.8312366	eelam ,	-0.02490469
-1.029386	election ,	-0.02490469
-1.152989	election to	-0.02490469
-0.8966281	elections in	-0.0249047
-0.9648607	electrical short-circuit	-0.02490469
-0.9648607	elementary school	-0.0249047
-0.4172354	end of	-0.3259347
-1.32908	end to	-0.02490469
-0.9648607	engineers involved	-0.02490468
-0.9634144	ensure huge	-0.0249047
-0.8844203	entered the	-0.02490469
-0.9534228	enters its	-0.02490469
-0.8966281	erred in	-0.02490469
-0.9354559	especially for	-0.02490469
-0.9648607	even if	-0.0249047
-0.9648607	every inch	-0.02490469
-0.9520141	example by	-0.02490469
-0.9053823	except to	-0.02490469
-0.8312366	exchange ,	-0.02490469
-1.029386	executive ,	-0.02490469
-1.264444	executive tung	-0.02490469
-0.9053823	expected to	-0.02490469
-0.8312366	explanations ,	-0.02490469
-1.356389	face a	-0.02490469
-1.534817	face china	-0.02490469
-1.562596	face criminal	-0.0249047
-1.562596	face discrimination	-0.02490469
-0.9605361	facilities used	-0.02490469
-1.032761	facility .	-0.02490467
-1.253044	facility could	-0.02490469
-0.9605361	facing investigation	-0.0249047
-0.8941589	fainted and	-0.02490469
-0.9562542	faked out	-0.02490469
-0.9634144	fallen protege	-0.02490469
-0.9648607	familiar rivals	-0.02490469
-0.9648607	fan wearing	-0.02490469
-0.9648607	fast surrendering	-0.0249047
-0.9619728	faster than	-0.02490469
-0.902863	fearing a	-0.02490469
-0.9548362	feet (	-0.02490469
-0.9605361	fein-ira leader	-0.02490469
-1.37873	few hong	-0.02490473
-1.430544	few minutes	-0.02490468
-1.434798	few mothers	-0.02490469
-0.9520141	field by	-0.02490469
-0.8844203	fight the	-0.02490469
-1.032761	fighting .	-0.02490467
-1.207677	fighting for	-0.02490469
-1.264444	final appeal	-0.0249047
-1.264444	final judgment	-0.02490469
-0.8966281	finalist in	-0.02490469
-1.264444	financial prowess	-0.02490468
-1.258707	financial systems	-0.02490469
-1.21958	fire .	-0.02490467
-1.644008	fire safety	-0.02490469
-1.545379	fire that	-0.02490469
-1.658074	fire very	-0.02490469
-1.630383	fire wednesday	-0.0249047
-0.9619728	fire-extinguishing systems	-0.02490468
-0.9053823	fired to	-0.02490469
-0.9591041	firefighters could	-0.02490469
-0.9605361	fireman who	-0.02490469
-1.562596	first floor	-0.0249047
-1.55127	first half	-0.02490469
-1.562596	first stop	-0.02490469
-1.493764	first two	-0.02490469
-0.9619728	flag-raising ceremony	-0.02490467
-1.264444	flags fluttered	-0.02490469
-1.261566	flags through	-0.0249047
-0.9648607	flammable materials	-0.02490469
-0.9605361	fled when	-0.02490469
-1.247454	flew into	-0.02490468
-1.255866	flew past	-0.02490469
-0.9591041	floated over	-0.0249047
-0.8929296	floor of	-0.02490468
-1.032761	floors .	-0.02490467
-1.264444	floors scrambled	-0.02490469
-0.8966281	flower in	-0.02490469
-0.9648607	fluttered among	-0.0249047
-0.9395366	follows that	-0.02490469
-2.279234	for abuse	-0.0249047
-2.279234	for amnesty	-0.02490469
-2.026855	for an	-0.02490469
-2.279234	for australia	-0.02490469
-2.17794	for beijing	-0.0249047
-2.279234	for canberra	-0.02490469
-2.251611	for colombo	-0.02490469
-2.279234	for comments	-0.02490469
-2.279234	for days	-0.02490469
-2.279234	for example	-0.02490469
-2.279234	for facilities	-0.02490469
-2.279234	for identification	-0.02490469
-2.201136	for karlsson	-0.02490468
-2.201136	for later	-0.02490469
-2.114973	for mahathir	-0.02490469
-1.289017	for political	-0.02490468
-2.279234	for questioning	-0.02490469
-2.279234	for sodomy	-0.0249047
-2.251611	for sri	-0.02490469
-1.579752	for the	-0.02490469
-2.011191	for two	-0.02490469
-0.9506099	force one	-0.02490469
-0.8333719	forces .	-0.02490467
-0.8312366	forehead ,	-0.02490469
-1.253044	forensic officials	-0.02490469
-1.261566	forensic tests	-0.02490469
-0.8929296	formation of	-0.02490469
-0.9591041	formed her	-0.02490469
-1.644008	former australian	-0.02490469
-1.644008	former deputy	-0.0249047
-1.658074	former fireman	-0.02490469
-1.650984	former protege	-0.02490469
-1.658074	former rebel	-0.0249047
-0.9648607	formula dubbed	-0.02490469
-0.9619728	four adults	-0.02490469
-0.8312366	foxboro ,	-0.02490469
-0.9478149	framed with	-0.02490469
-1.137625	free in	-0.0249047
-1.261566	free kick	-0.0249047
-0.9648607	free-market economy	-0.02490469
-0.9634144	freight containers	-0.02490469
-0.9648607	frequent opponents	-0.02490468
-0.8312366	friday ,	-0.02490469
-1.909079	from 1.6	-0.0249047
-1.909079	from air	-0.02490469
-1.909079	from britain	-0.02490469
-1.909079	from getting	-0.0249047
-1.909079	from just	-0.0249047
-1.808441	from one	-0.0249047
-1.909079	from rugby	-0.02490469
-0.844507	from the	-0.02490469
-0.9648607	fund-raising dinner	-0.02490469
-0.9648607	funeral flower	-0.02490468
-0.9634144	gained residency	-0.0249047
-1.255866	gave clinton	-0.0249047
-1.255866	gave up	-0.02490469
-0.9634144	general vote	-0.02490469
-0.9648607	gerry adams	-0.0249047
-1.275548	get a	-0.02490469
-1.439094	get heated	-0.0249047
-1.413933	get out	-0.02490469
-0.9634144	getting too	-0.02490469
-0.9619728	giant nippon	-0.02490467
-0.9634144	give peace	-0.02490469
-1.032761	goal .	-0.02490467
-1.152989	goal to	-0.02490469
-1.264444	goalie ulrika	-0.02490469
-1.223154	goalie was	-0.02490469
-0.8333719	going .	-0.02490467
-0.9648607	golf club	-0.02490468
-0.9648607	got worse	-0.02490469
-1.835846	government building	-0.02490469
-1.846746	government denies	-0.0249047
-1.846746	government forensic	-0.02490469
-1.748397	government has	-0.02490469
-1.857926	government license	-0.02490469
-1.814835	government officials	-0.0249047
-1.846746	government runs	-0.0249047
-1.526011	government to	-0.02490469
-0.9548362	gp-dj )	-0.02490469
-0.9648607	graf pvs	-0.0249047
-0.9648607	grandmothers hugged	-0.02490469
-0.943656	granted hong	-0.02490473
-0.9409054	grip on	-0.02490469
-1.252471	groups of	-0.02490469
-1.281514	groups to	-0.02490469
-1.422159	groups which	-0.02490469
-0.943656	guarantees hong	-0.02490473
-1.032761	guard .	-0.02490467
-1.223154	guard was	-0.02490469
-1.122361	guards ,	-0.02490469
-1.126545	guards .	-0.0249047
-1.430544	guards dead	-0.0249047
-0.902863	gulbrandsen a	-0.02490469
-0.8312366	gunfire ,	-0.02490469
-1.264444	gunmen fled	-0.02490469
-1.264444	gunmen raided	-0.0249047
-0.9591041	gutted dormitory	-0.0249047
-1.522748	had a	-0.02490469
-1.786003	had earlier	-0.02490469
-1.802775	had erred	-0.02490468
-1.802775	had left	-0.02490469
-0.7638506	had to	-0.02490469
-1.802775	had wanted	-0.0249047
-1.214402	half ,	-0.02490469
-1.21958	half .	-0.02490467
-1.658074	half befitting	-0.02490469
-1.650984	half goal	-0.02490469
-1.381886	half of	-0.02490468
-0.9520141	hampered by	-0.02490469
-0.9520141	handover is	-0.02490469
-0.9648607	hands-off pledge	-0.0249047
-0.9648607	happen again	-0.0249047
-0.8333719	harbor .	-0.02490467
-0.9605361	harragon last	-0.02490468
-2.064553	has allowed	-0.0249047
-2.064553	has banded	-0.0249047
-2.034756	has been	-0.0249047
-2.064553	has held	-0.0249047
-1.06627	has kept	-0.02490469
-2.064553	has largely	-0.0249047
-1.063185	has not	-0.02490469
-2.064553	has retired	-0.0249047
-1.92135	has said	-0.0249047
-2.064553	has stayed	-0.02490469
-2.049399	has turned	-0.02490469
-0.9648607	hat ran	-0.0249047
-1.953423	have agreed	-0.02490469
-0.9516237	have been	-0.02490469
-1.953423	have caused	-0.0249047
-1.916903	have died	-0.0249047
-1.953423	have entered	-0.0249047
-1.953423	have proper	-0.02490469
-1.953423	have targeted	-0.0249047
-1.894159	have their	-0.02490469
-1.940905	have worked	-0.02490469
-0.8312366	hazardous ,	-0.02490469
-2.068779	he added	-0.02490469
-2.005647	he had	-0.02490469
-1.959251	he has	-0.02490469
-1.058182	he is	-0.02490469
-1.055978	he said	-0.02490468
-2.068779	he survived	-0.02490469
-0.6150318	he was	-0.02490469
-2.015552	he would	-0.02490469
-0.8966281	head in	-0.0249047
-0.9591041	hear her	-0.02490469
-1.029386	heard ,	-0.02490469
-1.264444	heard rapid	-0.02490469
-0.8312366	heated ,	-0.02490469
-0.9648607	hege riise	-0.02490469
-1.261566	height advantage	-0.0249047
-1.131203	height of	-0.02490469
-0.9634144	held several	-0.0249047
-0.9395366	helicopters that	-0.02490469
-0.8966281	help in	-0.02490469
-1.658074	her forehead	-0.0249047
-1.650984	her height	-0.0249047
-1.658074	her husband	-0.02490469
-1.644008	her national	-0.02490469
-1.658074	her talk	-0.02490469
-0.8333719	here .	-0.02490467
-1.236486	high as	-0.02490469
-1.247454	high into	-0.02490468
-0.9648607	highest level	-0.0249047
-0.9648607	highly regulated	-0.0249047
-0.8312366	him ,	-0.02490469
-1.911745	his armed	-0.02490469
-1.938172	his challenge	-0.02490469
-1.924758	his deputy	-0.02490469
-1.924758	his first	-0.02490469
-1.911745	his former	-0.02490469
-1.924758	his guards	-0.02490469
-1.911745	his home	-0.02490469
-1.911745	his party	-0.02490469
-1.899111	his prime	-0.02490469
-1.938172	his wife	-0.02490469
-0.2557562	holding company	-0.0249047
-0.8333719	holiday .	-0.02490467
-1.637142	home but	-0.02490469
-1.529143	home for	-0.0249047
-1.393391	home in	-0.02490469
-1.381886	home of	-0.02490469
-1.644008	home state	-0.0249047
-0.9354559	homeland for	-0.0249047
-0.02490072	hong kong	-0.1897149
-0.9648607	hooker steve	-0.0249047
-0.9619728	hoopla including	-0.02490469
-0.9648607	horrible tragedy	-0.02490469
-0.8929296	host of	-0.02490469
-0.9605361	hours before	-0.02490469
-0.9634144	house spokesman	-0.02490469
-1.439094	how come	-0.02490469
-1.422159	how this	-0.02490469
-1.434798	how well	-0.02490469
-0.9492102	howard said	-0.02490469
-1.474606	hu 's	-0.02490469
-1.562596	hu jintao	-0.02490469
-1.556896	hu spoke	-0.02490469
-1.562596	hu told	-0.02490469
-0.2563227	huge crowds	-0.02490469
-0.8941589	hugged and	-0.02490469
-0.8941589	husband and	-0.02490469
-0.8312366	hwasung ,	-0.02490469
-1.264444	i anticipated	-0.02490469
-1.261566	i heard	-0.02490469
-0.9548362	ibrahim thursday	-0.0249047
-0.8333719	identification .	-0.02490467
-0.8844203	if the	-0.02490469
-1.032761	immigrants .	-0.02490467
-1.253044	immigrants over	-0.02490469
-0.9619728	important than	-0.02490469
-0.9648607	imposing 6	-0.02490469
-2.675596	in 1996	-0.02490469
-0.8682867	in a	-0.02490469
-2.36848	in an	-0.02490469
-2.675596	in apparent	-0.02490469
-2.547604	in beijing	-0.02490469
-2.675596	in celebration	-0.02490469
-2.639892	in demonstrations	-0.02490469
-2.606901	in each	-0.02490469
-2.606901	in east	-0.0249047
-2.427336	in his	-0.02490469
-2.675596	in hwasung	-0.0249047
-2.639892	in injury	-0.02490469
-2.675596	in january	-0.02490469
-2.606901	in japan	-0.02490468
-2.675596	in maliana	-0.02490468
-2.606901	in most	-0.02490469
-2.675596	in mostly	-0.02490469
-1.420151	in penang	-0.0249047
-2.675596	in place	-0.0249047
-2.639892	in recent	-0.02490469
-1.420151	in seoul	-0.0249047
-2.606901	in south	-0.02490467
-0.4993332	in the	-0.04972828
-2.520738	in their	-0.02490469
-2.35051	in two	-0.02490469
-2.675596	in vavuniya	-0.0249047
-2.547604	in which	-0.02490469
-2.606901	in women	-0.02490467
-0.8333719	inc .	-0.02490467
-0.9548362	inch (	-0.02490469
-0.9548362	inches (	-0.02490469
-0.902863	included a	-0.02490469
-1.275548	including a	-0.02490469
-1.37873	including hong	-0.02490473
-1.439094	including those	-0.02490469
-0.9619728	independence _	-0.02490469
-0.9648607	independent homeland	-0.02490469
-0.9648607	indonesian province	-0.0249047
-0.8333719	industry .	-0.02490467
-0.9576768	influx would	-0.02490469
-0.8966281	injured in	-0.0249047
-1.032761	injury .	-0.02490467
-1.264444	injury time	-0.02490468
-0.8941589	inside and	-0.02490469
-0.9409054	insisted on	-0.02490469
-0.9053823	intended to	-0.02490469
-1.439094	international carrier	-0.0249047
-1.397934	international one	-0.02490469
-1.430544	international phone	-0.02490469
-0.9619728	internet service	-0.02490469
-1.559398	into a	-0.02490469
-1.804202	into charred	-0.02490469
-1.804202	into custody	-0.02490469
-0.4987078	into the	-0.02490469
-1.719993	into two	-0.02490469
-1.177564	investigation ,	-0.02490469
-1.3321	investigation and	-0.02490469
-1.545716	investigation center	-0.02490469
-1.456259	investigation were	-0.02490469
-0.9648607	investors appeared	-0.02490469
-0.8966281	involved in	-0.0249047
-0.9634144	ireland peace	-0.02490469
-0.9409054	irish on	-0.0249047
-1.924489	is also	-0.02490469
-2.011938	is announced	-0.02490469
-1.996085	is being	-0.02490469
-2.028391	is chipping	-0.02490469
-2.028391	is crucial	-0.02490469
-2.028391	is expected	-0.02490469
-2.028391	is fast	-0.02490469
-1.98079	is more	-0.02490469
-1.98079	is now	-0.0249047
-2.028391	is popular	-0.02490468
-2.028391	is serving	-0.02490469
-1.50265	is the	-0.02490469
-0.9648607	ismail formed	-0.0249047
-0.8312366	issues ,	-0.02490469
-0.9634144	issuing arrest	-0.02490469
-1.610454	it 's	-0.02490469
-1.735828	it 3-0	-0.02490469
-1.67976	it also	-0.02490469
-1.735828	it stopped	-0.02490468
-1.643726	it with	-0.02490468
-1.695055	it would	-0.02490469
-1.895148	its autonomy	-0.0249047
-1.882981	its business	-0.02490469
-1.895148	its financial	-0.02490469
-1.907665	its hands-off	-0.02490469
-1.907665	its own	-0.02490469
-1.907665	its return	-0.02490469
-1.907665	its social	-0.02490469
-1.907665	its third	-0.0249047
-1.907665	its way	-0.0249047
-0.9562542	itself into	-0.02490469
-0.9634144	jailed 10	-0.02490469
-0.9395366	january that	-0.02490469
-0.427482	japan 's	-0.02490469
-1.205478	japan ,	-0.02490469
-0.9619728	japanese telecommunications	-0.02490469
-0.8312366	ji-su ,	-0.02490469
-0.9648607	jintao unveiled	-0.02490469
-0.9619728	joe lockhart	-0.02490469
-0.9648607	john howard	-0.02490468
-0.9648607	jorgensen sent	-0.02490469
-0.9409054	judgment on	-0.02490469
-0.8941589	judiciary and	-0.02490469
-0.9648607	july 1	-0.0249047
-0.8312366	jumped ,	-0.02490469
-0.9648607	june 2000	-0.0249047
-0.9634144	just outside	-0.02490469
-0.9605361	justice party	-0.02490469
-0.9562542	justices had	-0.02490469
-0.8312366	kam-wah ,	-0.02490469
-0.5351157	karlsson and	-0.02490469
-1.385921	karlsson in	-0.0249047
-1.559737	karlsson tripped	-0.0249047
-0.9634144	kazuhiko nishizawa	-0.02490467
-0.9648607	keep arms	-0.02490469
-1.40586	kept its	-0.02490469
-1.233239	kept the	-0.02490469
-1.281514	kept to	-0.02490469
-1.261566	kick high	-0.0249047
-1.255866	kick when	-0.02490469
-1.264444	kids didn	-0.0249047
-1.255866	kids died	-0.02490469
-1.137625	killed in	-0.0249047
-1.228438	killed two	-0.02490469
-0.2553318	kilometers (	-0.02490469
-1.439094	kim dae-jung	-0.02490468
-1.439094	kim ji-su	-0.0249047
-1.439094	kim yong-se	-0.0249047
-1.133333	kindergarten and	-0.02490469
-1.137625	kindergarten in	-0.02490469
-0.9634144	knee injury	-0.02490469
-1.264444	knights captain	-0.02490469
-1.264444	knights player	-0.02490469
-0.8844203	know the	-0.02490469
-0.9506099	known as	-0.02490469
-0.9648607	koh suk	-0.0249047
-1.829057	kong 's	-0.02490469
-2.044017	kong autonomy	-0.0249047
-2.061758	kong chief	-0.0249047
-2.061758	kong deferred	-0.02490469
-2.061758	kong enters	-0.0249047
-2.044017	kong flags	-0.0249047
-1.897804	kong has	-0.02490469
-1.923371	kong is	-0.02490469
-2.044017	kong parent	-0.02490469
-1.994767	kong people	-0.02490469
-2.044017	kong residency	-0.02490469
-1.850786	kong was	-0.02490469
-2.044017	kong well	-0.02490469
-1.217934	korea 's	-0.02490469
-1.032761	korea .	-0.02490469
-0.9619728	kristin aarones	-0.02490469
-0.8966281	landed in	-0.0249047
-0.9409054	lanka 's	-0.02490469
-0.9648607	lankan capital	-0.0249047
-0.9634144	largely kept	-0.02490469
-0.9619728	largest telecommunications	-0.0249047
-0.5570694	last month	-0.3259347
-1.564033	last september	-0.02490469
-1.555483	last year	-0.0249047
-0.9548362	lasted about	-0.02490469
-0.9053823	late to	-0.02490469
-1.177564	later ,	-0.02490469
-1.562596	later confiscated	-0.02490469
-1.540232	later this	-0.02490469
-1.524184	later thursday	-0.02490471
-0.9648607	lau kam-wah	-0.0249047
-0.902863	launched a	-0.02490469
-0.8312366	law ,	-0.02490469
-1.133333	lawmaker and	-0.02490469
-1.264444	lawmaker martin	-0.02490469
-0.9053823	lawmakers to	-0.02490469
-1.562596	leader david	-0.02490469
-1.562596	leader gerry	-0.02490469
-1.328739	leader of	-0.02490468
-1.55127	leader will	-0.0249047
-1.233786	leaders at	-0.02490469
-1.131203	leaders of	-0.02490469
-0.9605361	league because	-0.0249047
-0.9354559	leaped for	-0.02490469
-0.8312366	lee ,	-0.02490469
-0.9520141	left his	-0.02490469
-0.9648607	legal dilemma	-0.02490469
-0.8929296	length of	-0.02490468
-0.9591041	level since	-0.02490469
-0.9634144	liberation organization	-0.02490469
-0.8333719	license .	-0.02490469
-0.8844203	licensed the	-0.02490469
-0.8312366	limits ,	-0.02490469
-0.8929296	lives of	-0.02490469
-0.9492102	living has	-0.02490469
-1.422159	local government	-0.02490469
-1.434798	local leaders	-0.02490469
-1.430544	local phone	-0.02490469
-1.440536	lockhart declined	-0.02490469
-0.4291667	lockhart said	-0.3259347
-0.902863	lofted a	-0.02490469
-1.029386	long ,	-0.02490469
-1.247454	long had	-0.02490469
-0.248876	long-distance and	-0.3259347
-0.8333719	look .	-0.02490467
-0.9648607	lost 6-year-old	-0.02490469
-0.9648607	loudly demanding	-0.02490469
-0.9634144	lower floors	-0.02490469
-0.9605361	m. balachandran	-0.02490468
-0.9648607	macon wong	-0.0249047
-1.131203	made of	-0.02490469
-1.116578	made the	-0.02490469
-0.8897285	mahathir 's	-0.02490469
-1.327428	mahathir ,	-0.02490469
-1.333404	mahathir .	-0.02490467
-1.876366	mahathir because	-0.02490468
-1.886999	mahathir began	-0.02490469
-1.817518	mahathir is	-0.02490469
-1.909079	mahathir mohamad	-0.0249047
-1.909079	mahathir treated	-0.0249047
-1.029386	mainland ,	-0.02490469
-1.255866	mainland chinese	-0.02490469
-1.264444	major corporate	-0.0249047
-1.264444	major overhaul	-0.02490468
-0.9648607	majority sinhalese	-0.02490469
-0.9464242	make two	-0.02490469
-0.9648607	makeshift mourning	-0.02490469
-1.239202	making his	-0.02490469
-1.253044	making it	-0.02490469
-0.9619728	malays national	-0.02490469
-0.8333719	malaysia .	-0.02490467
-0.9619728	malaysian state	-0.0249047
-0.9648607	male fan	-0.02490469
-0.8966281	maliana in	-0.02490469
-0.9648607	malin mostrom	-0.02490469
-0.943656	manage hong	-0.02490473
-0.9562542	manages ntt	-0.02490469
-0.8966281	manner in	-0.02490469
-1.439094	many observers	-0.02490469
-1.439094	many ordinary	-0.02490469
-1.422159	many people	-0.02490469
-0.9634144	marianne pettersen	-0.02490469
-0.8844203	marked the	-0.02490469
-0.8333719	market .	-0.02490467
-0.9619728	marks part	-0.0249047
-0.9648607	martin lee	-0.0249047
-0.8333719	massachusetts .	-0.02490467
-1.177564	match ,	-0.02490469
-1.182319	match .	-0.02490467
-1.562596	match between	-0.02490469
-1.562596	match sunday	-0.02490468
-0.9354559	materials were	-0.02490469
-0.9520141	may have	-0.02490469
-0.9634144	measures must	-0.0249047
-0.9648607	meet-the-people tour	-0.02490469
-0.9478149	meetings with	-0.02490469
-0.8312366	megaphones ,	-0.02490469
-0.8966281	members in	-0.02490469
-0.8333719	met .	-0.02490467
-1.244686	meters (	-0.02490469
-1.244686	meters )	-0.0249047
-0.9648607	midfielder towered	-0.0249047
-0.9648607	migrant influx	-0.02490469
-0.2553318	miles )	-0.02490469
-0.9648607	militia members	-0.02490468
-1.152989	million to	-0.02490469
-1.264444	million yen	-0.02490469
-0.8312366	mini-constitution ,	-0.02490469
-1.630383	minister anwar	-0.02490469
-1.585805	minister has	-0.02490469
-1.658074	minister john	-0.02490469
-1.610715	minister mahathir	-0.02490469
-1.658074	minister tony	-0.0249047
-0.8929296	ministry of	-0.02490469
-0.9591041	minority since	-0.02490469
-1.126545	minute .	-0.02490467
-1.413933	minute after	-0.0249047
-1.25529	minute and	-0.02490469
-1.208852	minutes .	-0.02490469
-0.4314231	minutes later	-0.3259347
-0.9619728	mobile communications	-0.02490469
-1.255866	moderate tamil	-0.02490469
-1.264444	moderate tamils	-0.02490469
-0.9634144	mohamad flew	-0.0249047
-0.9409054	money on	-0.02490471
-0.9409054	monopoly on	-0.02490469
-0.8333719	month .	-0.02490467
-0.4297297	monument "	-0.3259347
-1.434798	monument ceremony	-0.02490467
-1.565474	more important	-0.0249047
-0.277729	more than	-0.02490469
-0.8312366	morning ,	-0.02490469
-1.439094	most cases	-0.02490468
-1.422159	most people	-0.02490469
-1.418027	most would	-0.02490469
-0.9648607	mostly muslim	-0.02490469
-0.9648607	mostrom scored	-0.02490468
-1.133333	mothers and	-0.02490469
-1.264444	mothers fainted	-0.02490469
-0.9648607	mourning altar	-0.02490469
-0.9648607	move marks	-0.0249047
-0.9648607	muslim malaysia	-0.02490469
-1.247454	must be	-0.02490469
-1.264444	must step	-0.0249047
-0.9648607	narrow corridor	-0.02490469
-1.439094	national justice	-0.02490469
-1.434798	national organization	-0.02490469
-1.439094	national scientific	-0.02490469
-0.9648607	nations personnel	-0.02490469
-0.9648607	nationwide meet-the-people	-0.02490469
-0.8844203	near the	-0.02490469
-0.8312366	nearby ,	-0.02490469
-1.207677	need for	-0.02490469
-1.152989	need to	-0.02490469
-0.8941589	neighbors and	-0.02490469
-0.8333719	net .	-0.02490467
-0.9648607	network inc	-0.02490469
-0.9648607	never happen	-0.02490469
-1.261566	new companies	-0.02490469
-1.264444	new look	-0.02490469
-0.9634144	newcastle knights	-0.02490469
-0.9648607	next decade	-0.0249047
-1.137625	night in	-0.02490469
-1.152989	night to	-0.02490469
-0.1531626	nippon telegraph	-0.5020259
-0.2547666	nishizawa said	-0.3259347
-0.9506099	no one	-0.0249047
-0.8333719	noise .	-0.02490469
-0.8929296	north of	-0.02490469
-1.264444	northern ireland	-0.0249047
-1.264444	northern malaysian	-0.0249047
-1.37128	norway 's	-0.02490469
-1.122361	norway ,	-0.02490469
-1.281514	norway to	-0.02490469
-1.434798	norwegian flags	-0.02490469
-1.439094	norwegian midfielder	-0.02490469
-1.439094	norwegian substitute	-0.02490469
-1.133333	norwegians and	-0.02490469
-1.207677	norwegians were	-0.02490469
-1.68734	not be	-0.02490469
-1.719057	not been	-0.02490469
-1.735828	not behind	-0.0249047
-1.719057	not many	-0.0249047
-1.735828	not specify	-0.0249047
-1.735828	not yet	-0.0249047
-0.8333719	notified .	-0.02490467
-1.177564	now ,	-0.02490469
-1.356389	now a	-0.02490469
-1.534817	now china	-0.02490469
-1.556896	now runs	-0.02490469
-1.732411	ntt 's	-0.02490469
-1.882981	ntt communications	-0.0249047
-1.907665	ntt data	-0.0249047
-1.907665	ntt docomo	-0.0249047
-1.786545	ntt has	-0.0249047
-1.806201	ntt is	-0.02490469
-1.907665	ntt mobile	-0.0249047
-1.907665	ntt rose	-0.02490469
-1.895148	ntt spokesman	-0.02490469
-0.8929296	number of	-0.02490469
-0.9648607	observers predict	-0.02490469
-0.9492102	occurred at	-0.02490469
-2.629565	of 19	-0.0249047
-2.680041	of 21,411	-0.0249047
-1.188556	of a	-0.02490469
-2.58435	of adults	-0.02490469
-2.28577	of an	-0.02490469
-2.58435	of british	-0.02490469
-2.58435	of building	-0.02490469
-2.680041	of capacity	-0.02490469
-2.471536	of china	-0.0249047
-2.629565	of colombo	-0.02490469
-2.680041	of control	-0.0249047
-2.680041	of demonstrators	-0.02490469
-2.680041	of dignitaries	-0.0249047
-2.680041	of dissent	-0.02490469
-2.58435	of east	-0.0249047
-2.680041	of fallen	-0.0249047
-2.629565	of final	-0.02490469
-2.680041	of helicopters	-0.02490469
-2.505984	of her	-0.02490469
-2.355917	of his	-0.02490469
-2.225392	of hong	-0.02490473
-2.382066	of its	-0.02490469
-2.629565	of knights	-0.02490469
-2.680041	of living	-0.02490468
-2.40989	of mahathir	-0.02490469
-2.629565	of new	-0.0249047
-2.680041	of noise	-0.02490469
-2.43962	of ntt	-0.02490469
-2.629565	of our	-0.02490469
-2.629565	of penang	-0.0249047
-2.58435	of political	-0.02490468
-2.680041	of posts	-0.02490469
-2.680041	of potential	-0.0249047
-2.629565	of power	-0.0249047
-2.629565	of seoul	-0.0249047
-2.680041	of shipping	-0.0249047
-2.680041	of strength	-0.02490468
-2.680041	of survivors	-0.02490469
-2.543402	of tamil	-0.02490469
-2.172394	of that	-0.02490469
-0.593318	of the	-0.07926235
-2.629565	of them	-0.02490469
-0.9634144	off guard	-0.02490469
-0.9619728	offering both	-0.02490469
-0.9648607	officially launched	-0.02490469
-1.626378	officials had	-0.02490469
-1.659506	officials marked	-0.0249047
-0.6476527	officials said	-0.02490468
-1.642626	officials who	-0.02490469
-1.761034	on a	-0.02490469
-2.172176	on being	-0.02490469
-2.172176	on each	-0.02490469
-2.172176	on local	-0.02490469
-2.188029	on power	-0.0249047
-2.172176	on south	-0.02490467
-0.5247191	on the	-0.02490469
-2.204483	on trial	-0.02490469
-2.204483	on tuesday	-0.02490469
-1.202284	on wednesday	-0.02490469
-2.188029	on what	-0.02490469
-2.142107	on which	-0.02490469
-0.9648607	on-going knee	-0.0249047
-1.275548	once a	-0.02490469
-1.439094	once highly	-0.02490469
-1.409878	once they	-0.02490469
-0.9634144	once-fragmented opposition	-0.02490469
-1.345394	one ,	-0.02490469
-2.029791	one banner	-0.02490469
-2.014637	one child	-0.02490469
-1.031508	one country	-0.0249047
-2.014637	one guard	-0.02490469
-1.844351	one hong	-0.02490473
-2.014637	one kindergarten	-0.02490469
-2.014637	one long-distance	-0.0249047
-1.56478	one of	-0.02490469
-1.844351	one was	-0.02490469
-1.875638	one with	-0.02490469
-0.9648607	one-party communist	-0.0249047
-0.9464242	only two	-0.02490469
-0.9562542	operations into	-0.02490469
-0.8966281	opponents in	-0.02490469
-1.439094	opposition democratic	-0.02490469
-1.439094	opposition off	-0.0249047
-1.367603	opposition that	-0.02490469
-0.9648607	or plote	-0.0249047
-0.9648607	ordinary citizens	-0.02490469
-1.239202	organization have	-0.02490469
-1.131203	organization of	-0.02490469
-1.439094	other flammable	-0.02490469
-1.439094	other top	-0.02490469
-1.430544	other united	-0.02490469
-1.258707	our guards	-0.02490469
-1.264444	our money	-0.02490469
-1.777855	out but	-0.02490469
-0.792109	out by	-0.02490469
-1.500875	out in	-0.02490469
-1.488261	out of	-0.02490469
-1.703812	out two	-0.02490469
-1.802775	out walking	-0.0249047
-0.8844203	outshooting the	-0.02490469
-1.264444	outside stair-cases	-0.02490469
-1.116578	outside the	-0.02490469
-1.642626	over karlsson	-0.02490468
-1.659506	over sweden	-0.0249047
-0.6205982	over the	-0.02490469
-1.659506	over victoria	-0.02490469
-0.8966281	overhaul in	-0.02490469
-0.8844203	overlooking the	-0.02490469
-0.9619728	oversees nippon	-0.02490467
-0.9648607	own independence	-0.0249047
-0.8929296	owner of	-0.02490468
-0.8333719	pact .	-0.02490467
-0.8941589	parade and	-0.02490469
-1.029386	parent ,	-0.02490469
-1.264444	parent gained	-0.0249047
-1.133333	parents and	-0.02490469
-1.131203	parents of	-0.02490468
-1.313716	part in	-0.0249047
-0.4172354	part of	-0.02490469
-1.182319	party .	-0.02490467
-1.55127	party earlier	-0.0249047
-1.545716	party last	-0.02490468
-1.562596	party strategists	-0.0249047
-0.902863	pass a	-0.02490469
-1.177564	past ,	-0.02490469
-1.182319	past .	-0.02490467
-1.556896	past swedish	-0.02490468
-1.534817	past their	-0.02490469
-0.9648607	paul harragon	-0.02490469
-1.148543	peace a	-0.02490469
-1.264444	peace pact	-0.02490469
-1.122361	penalty ,	-0.02490469
-1.439094	penalty area	-0.02490469
-1.434798	penalty kick	-0.02490469
-1.2473	penang ,	-0.02490469
-0.5142186	penang .	-0.3259347
-1.526818	penang is	-0.02490469
-1.610454	people 's	-0.02490469
-1.735828	people agree	-0.02490469
-1.702909	people are	-0.02490469
-1.719057	people can	-0.02490469
-1.664986	people have	-0.02490469
-1.585558	people were	-0.02490469
-0.9409054	permitted on	-0.02490471
-0.9354559	personnel were	-0.02490469
-0.9548362	persuaded they	-0.02490469
-1.264444	pettersen faked	-0.02490468
-1.264444	pettersen near	-0.0249047
-0.9591041	pharmaceutical company	-0.02490469
-1.25529	phone and	-0.02490469
-1.430544	phone service	-0.0249047
-1.439094	phone services	-0.02490469
-0.8929296	photos of	-0.02490468
-0.8312366	place ,	-0.02490469
-0.8844203	placing the	-0.02490469
-0.9354559	planned for	-0.02490469
-1.264444	played 15	-0.0249047
-1.148543	played a	-0.02490469
-0.9409054	player 's	-0.02490469
-0.9478149	pleaded with	-0.02490468
-0.8312366	pledge ,	-0.02490469
-0.8312366	plote ,	-0.02490469
-0.9053823	point to	-0.02490469
-0.5015471	police and	-0.02490469
-1.790136	police began	-0.0249047
-1.539519	police in	-0.0249047
-1.78327	police later	-0.02490469
-1.731933	police said	-0.0249047
-0.5570694	political prisoners	-0.02490469
-1.564033	political reform	-0.02490469
-1.559737	political system	-0.02490469
-0.8966281	popular in	-0.02490469
-0.8941589	posts and	-0.02490469
-0.9634144	potential immigrants	-0.02490469
-0.2415548	power .	-0.3259347
-0.902863	predict a	-0.02490469
-0.9591041	present government	-0.02490469
-1.658074	president bill	-0.02490469
-1.658074	president demanded	-0.0249047
-1.637142	president hu	-0.02490469
-1.650984	president kim	-0.02490469
-1.650984	president made	-0.02490469
-0.2063787	prime minister	-0.02490468
-1.621094	prime was	-0.02490469
-0.9648607	prison sentence	-0.02490469
-1.029386	prisoners ,	-0.02490469
-1.032761	prisoners .	-0.02490467
-0.9634144	pro-democracy demonstrations	-0.02490469
-0.943656	proclaimed hong	-0.02490473
-0.9492102	program at	-0.02490468
-0.9591041	promises are	-0.0249047
-0.9648607	propel defending	-0.02490469
-0.9648607	proper fire-extinguishing	-0.0249047
-0.8941589	prosperous and	-0.02490469
-1.032761	protege .	-0.02490467
-1.253044	protege anwar	-0.02490469
-1.439094	protesters chanting	-0.02490469
-1.439094	protesters insisted	-0.02490469
-1.439094	protesters scuffled	-0.02490469
-0.9395366	prove that	-0.02490469
-0.9619728	provider business	-0.0249047
-0.8929296	province of	-0.02490469
-0.9562542	prowess after	-0.02490469
-0.9648607	public holiday	-0.02490469
-0.8312366	punishment ,	-0.02490469
-0.9591041	pvs </s>
-0.2560394	quarterfinal match	-0.02490469
-0.8333719	queensland .	-0.02490467
-0.8333719	questioning .	-0.02490467
-0.9648607	quickly got	-0.02490469
-0.8844203	raided the	-0.02490469
-1.137625	rallies in	-0.02490469
-1.264444	rallies planned	-0.02490469
-0.9520141	rallying his	-0.02490469
-0.9634144	ran through	-0.0249047
-0.9648607	rapid gunfire	-0.0249047
-0.8312366	rapidly ,	-0.02490469
-0.9354559	reached for	-0.02490469
-0.9619728	rebel groups	-0.0249047
-0.8312366	rebels ,	-0.02490469
-1.264444	recent legal	-0.02490469
-1.255866	recent years	-0.02490469
-0.8941589	recession and	-0.02490469
-0.8312366	recognition ,	-0.02490469
-0.9648607	recreational program	-0.02490468
-0.8941589	reform and	-0.02490469
-0.9634144	regime must	-0.02490469
-0.8312366	region ,	-0.02490469
-0.9634144	regional telephone	-0.02490469
-0.9619728	regulated phone	-0.02490469
-0.8333719	relatives .	-0.02490467
-0.8929296	release of	-0.02490469
-0.9648607	relevant issues	-0.0249047
-1.029386	reorganization ,	-0.02490469
-1.244686	reorganization thursday	-0.0249047
-0.9520141	repeatedly he	-0.02490469
-0.9648607	require dna	-0.02490469
-1.247454	residency after	-0.02490469
-1.152989	residency to	-0.02490469
-0.9548362	residents '	-0.02490469
-0.9591041	resolve this	-0.0249047
-0.9605361	resources past	-0.0249047
-0.9053823	responding to	-0.02490469
-0.8929296	rest of	-0.02490468
-0.9534228	retired from	-0.02490469
-0.9605361	retiree who	-0.0249047
-0.9648607	retirement follows	-0.02490469
-0.9053823	return to	-0.0249047
-0.9053823	returning to	-0.02490469
-0.9619728	reunification monument	-0.02490468
-0.9478149	reunited with	-0.02490469
-0.9053823	revised to	-0.02490469
-0.9648607	right side	-0.0249047
-0.9648607	riise converted	-0.0249047
-0.8333719	rivals .	-0.02490467
-0.9619728	roll call	-0.02490469
-0.9634144	room where	-0.02490469
-0.8333719	rooms .	-0.02490467
-0.9053823	rose to	-0.02490469
-0.9648607	rugby league	-0.02490469
-0.9605361	ruins before	-0.02490469
-0.8333719	rule .	-0.02490467
-1.137625	ruled in	-0.02490469
-1.264444	ruled saturday	-0.02490469
-1.258707	ruling _	-0.02490469
-1.258707	ruling united	-0.02490469
-1.148543	runs a	-0.02490469
-1.261566	runs until	-0.02490469
-0.9562542	rushed out	-0.02490469
-0.9648607	russia 2-0	-0.02490468
-0.9648607	russians 24-2	-0.02490469
-0.8941589	sacking and	-0.02490469
-0.9648607	safer without	-0.02490469
-1.440536	safety consulting	-0.0249047
-0.4322723	safety standards	-0.02490468
-0.6037791	said .	-0.8030559
-2.305384	said 21	-0.0249047
-2.09857	said an	-0.02490469
-1.312649	said kim	-0.02490469
-2.305384	said koh	-0.02490469
-2.305384	said lau	-0.02490469
-2.283852	said lawmaker	-0.02490469
-2.305384	said m.	-0.02490469
-2.305384	said macon	-0.02490469
-2.263337	said most	-0.02490469
-2.126898	said one	-0.02490469
-2.305384	said repeatedly	-0.02490469
-1.692537	said the	-0.02490469
-2.173186	said they	-0.02490469
-1.299386	said thursday	-0.02490468
-2.225003	said wednesday	-0.0249047
-0.9395366	saturday that	-0.02490469
-0.8844203	save the	-0.02490469
-0.9464242	saw two	-0.02490469
-1.409878	say about	-0.02490469
-1.37873	say hong	-0.02490473
-1.367603	say that	-0.02490469
-1.239202	saying he	-0.02490469
-1.244686	saying they	-0.02490469
-0.9534228	school children	-0.0249047
-0.9605361	scientific investigation	-0.02490469
-0.8966281	scored in	-0.02490469
-0.9619728	scoreless first	-0.02490469
-0.9053823	scrambled to	-0.02490469
-0.9478149	scuffled with	-0.02490469
-0.9409054	sea on	-0.02490469
-0.9648607	sealand youth	-0.02490469
-0.431706	second half	-0.0249047
-1.440536	second largest	-0.0249047
-0.943656	security was	-0.02490469
-0.9619728	semifinal match	-0.02490469
-0.902863	sending a	-0.02490469
-0.902863	sent a	-0.02490469
-0.9354559	sentence for	-0.02490469
-0.5142186	seoul .	-0.3259347
-1.481692	seoul for	-0.02490469
-1.481692	seoul were	-0.02490469
-0.8312366	separately ,	-0.02490469
-0.8333719	september .	-0.02490467
-1.401879	service have	-0.02490469
-1.439094	service provider	-0.0249047
-1.434798	service under	-0.02490469
-0.8333719	services .	-0.02490467
-0.902863	serving a	-0.02490469
-0.9605361	set up	-0.0249047
-1.264444	several inches	-0.02490469
-1.261566	several rallies	-0.02490469
-0.8333719	share .	-0.02490467
-0.8929296	shares of	-0.02490469
-1.503669	she has	-0.02490469
-1.562596	she jumped	-0.0249047
-1.545716	she used	-0.02490469
-1.484079	she was	-0.02490469
-0.9634144	shipping containers	-0.02490469
-0.8929296	short of	-0.02490469
-0.9648607	short-circuit may	-0.02490469
-1.264444	shot skipping	-0.02490469
-1.215347	shot that	-0.02490469
-0.9648607	should never	-0.02490469
-0.8929296	show of	-0.02490469
-0.9605361	showed up	-0.0249047
-0.9605361	shutout when	-0.02490469
-0.8929296	side of	-0.02490469
-0.9648607	silje jorgensen	-0.02490469
-0.9634144	similar attack	-0.02490469
-1.659506	since 1983	-0.0249047
-0.6515784	since anwar	-0.3259347
-1.659506	since december	-0.02490469
-1.615873	since its	-0.02490469
-0.8333719	sinhalese .	-0.02490467
-0.9648607	sinn fein-ira	-0.02490469
-0.9648607	six-year prison	-0.02490469
-0.9591041	skies over	-0.02490469
-0.9605361	skipping past	-0.02490469
-0.9619728	small groups	-0.02490469
-0.8312366	soccer ,	-0.02490469
-0.8941589	social and	-0.02490469
-0.8312366	sodomy ,	-0.02490469
-0.9634144	soft shot	-0.02490469
-0.9648607	solveig gulbrandsen	-0.02490469
-0.9534228	some children	-0.02490469
-0.1531626	south korea	-0.200996
-0.8929296	southwest of	-0.02490469
-0.9053823	speaking to	-0.02490469
-0.9648607	special administrative	-0.02490469
-0.9634144	specify them	-0.02490469
-0.9534228	split its	-0.02490469
-1.029386	spoke ,	-0.02490469
-1.241935	spoke from	-0.02490469
-1.264444	spokesman joe	-0.0249047
-1.264444	spokesman kazuhiko	-0.0249047
-0.9619728	spread fire	-0.02490469
-0.9648607	square pro-democracy	-0.0249047
-0.9648607	squarely placing	-0.0249047
-1.264444	sri lanka	-0.02490469
-1.264444	sri lankan	-0.02490469
-0.9053823	stacked to	-0.02490469
-0.9562542	staff had	-0.02490469
-0.9409054	stair-cases on	-0.02490469
-0.9506099	stairs as	-0.02490469
-1.029386	standards ,	-0.02490469
-1.244686	standards thursday	-0.02490469
-0.8966281	stands in	-0.02490469
-0.9354559	star for	-0.02490469
-0.4172354	state of	-0.02490469
-1.437657	state where	-0.02490469
-0.9634144	state-level leaders	-0.02490469
-0.8333719	states .	-0.02490467
-0.8844203	stay the	-0.02490469
-0.9648607	stayed prosperous	-0.02490469
-0.9520141	stem his	-0.02490469
-0.9634144	step down	-0.02490469
-0.9634144	steve walters	-0.02490469
-0.9648607	stock exchange	-0.0249047
-0.9409054	stop on	-0.02490469
-0.9562542	stopped after	-0.0249047
-0.8312366	strategists ,	-0.02490469
-0.8966281	strength in	-0.02490469
-0.9619728	strengthen safety	-0.0249047
-0.943656	stretch hong	-0.02490473
-0.9648607	stretching 50	-0.0249047
-1.264444	stricter measures	-0.0249047
-1.258707	stricter safety	-0.0249047
-0.9591041	struck it	-0.02490469
-0.9648607	structural engineers	-0.02490469
-0.8312366	structure ,	-0.02490469
-0.9619728	structures can	-0.02490469
-0.9619728	struggle against	-0.02490469
-0.8966281	stunned in	-0.0249047
-0.8312366	styrofoam ,	-0.02490469
-0.9591041	sub-standard dormitory	-0.02490469
-0.9520141	substantive "	-0.02490469
-0.9648607	substitute solveig	-0.02490469
-0.9648607	successive elections	-0.02490468
-1.261566	such immigrants	-0.02490469
-1.264444	such structures	-0.0249047
-0.8312366	suk ,	-0.02490469
-0.9619728	summer camp	-0.02490469
-0.9492102	sunday at	-0.02490469
-0.9534228	surrendering its	-0.02490469
-0.902863	survived a	-0.02490469
-0.9605361	survivors before	-0.02490469
-0.9591041	sweden wednesday	-0.02490469
-1.122361	swedes ,	-0.02490469
-1.126545	swedes .	-0.02490467
-1.439094	swedes avoided	-0.02490469
-1.559737	swedish defenders	-0.02490469
-0.5570694	swedish goalie	-0.02490469
-1.555483	swedish penalty	-0.02490469
-0.8844203	swept the	-0.02490469
-1.032761	system .	-0.02490467
-1.133333	system and	-0.02490469
-1.621094	systems '	-0.0249047
-0.5966173	systems ,	-0.02490469
-1.279229	systems .	-0.0249047
-1.566856	systems that	-0.02490469
-0.8929296	t of	-0.02490468
-0.9619728	take part	-0.02490469
-1.247454	taken into	-0.02490469
-1.152989	taken to	-0.02490469
-0.9548362	talk about	-0.02490468
-0.9648607	talked twice	-0.02490469
-1.032761	talks .	-0.02490467
-1.207677	talks were	-0.02490469
-0.9648607	tallest woman	-0.02490469
-1.658074	tamil eelam	-0.0249047
-1.650984	tamil lawmaker	-0.02490469
-1.658074	tamil minority	-0.0249047
-1.658074	tamil tiger	-0.02490469
-1.658074	tamil tigers	-0.02490469
-0.9648607	tamil-majority town	-0.02490469
-0.8333719	tamils .	-0.02490467
-0.9634144	targeted moderate	-0.02490469
-0.9354559	teacher were	-0.02490469
-1.274474	teachers ,	-0.02490469
-1.42901	teachers and	-0.02490469
-1.435813	teachers in	-0.0249047
-0.6421053	teachers were	-0.02490469
-1.434798	telecommunications announced	-0.0249047
-1.422159	telecommunications company	-0.0249047
-1.439094	telecommunications giant	-0.0249047
-0.8941589	telegraph and	-0.02490469
-1.556896	telephone companies	-0.02490469
-1.540232	telephone corp.	-0.02490469
-1.55127	telephone east	-0.0249047
-1.556896	telephone west	-0.02490469
-0.8929296	term of	-0.02490468
-1.029386	territory ,	-0.02490469
