
\data\
ngram 1=8
ngram 2=8

\1-grams:
-0.90309	</s>
-99	<s>	-0.7781513
-0.90309	This	-0.7781513
-0.90309	a	-0.4771213
-0.90309	another	-0.4771213
-0.90309	is	-0.4771212
-0.90309	sentence.	-0.7781513
-0.60206	test	-0.7781513

\2-grams:
-0.06845738	<s> This
-0.06845738	This is
-0.1249387	a test
-0.1249387	another test
-0.4259687	is a
-0.4259687	is another
-0.06845738	sentence. </s>
-0.06845738	test sentence.

\end\
