
\data\
ngram 1=8
ngram 2=8
ngram 3=8

\1-grams:
-0.90309	</s>
-99	<s>	-0.5228788
-0.90309	This	-0.2218488
-0.90309	a	-0.2218488
-0.90309	another	-0.2218488
-0.90309	is	-0.2218487
-0.90309	sentence.	-0.2218488
-0.60206	test	-0.5228788

\2-grams:
-0.132238	<s> This	-0.5228788
-0.3233064	This is	-0.2218487
-0.2596373	a test	-0.2218488
-0.2596373	another test	-0.2218488
-0.5606673	is a	-0.2218487
-0.5606673	is another	-0.2218487
-0.3233064	sentence. </s>
-0.132238	test sentence.	-0.5228788

\3-grams:
-0.07443009	<s> This is
-0.1366771	is a test
-0.1366771	is another test
-0.4377072	This is a
-0.4377072	This is another
-0.07443009	test sentence. </s>
-0.07443009	a test sentence.
-0.07443009	another test sentence.

\end\
